svm_type c_svc
kernel_type rbf
gamma 0.03125
nr_class 5
total_sv 293
rho 0.0775029 -0.0481201 -0.120662 0.466988 -0.290954 -0.401722 0.45539 0.0553041 0.549542 0.7504
label 0 1 2 3 4
nr_sv 39 79 25 92 58
SV
2.252414353068164 1.236997184150419 2.200802586797515 2.25579981470718 0:-0.780002 1:-1 2:-0.4 3:-0.652002 4:-1 5:-1 6:-0.884001 7:-1 8:-0.936 9:-1 10:-0.857143 11:-1 12:-0.818182 13:-0.974667 14:-1 15:-0.856001 16:-0.649998 17:-0.846154 18:-0.187198 19:-0.925333 20:-0.556 21:-0.872 22:-0.962 23:-0.75 24:-1 25:-0.399994 26:-1 27:-0.75 28:-1 29:-0.725999 30:-1 31:-0.767995 32:-0.645986 33:-1 34:-0.447997 35:-0.84 36:-0.844666 37:-1 38:-0.729997 39:-1 40:-0.537332 41:-0.25 42:-1 43:-1 44:-0.92 45:-0.519995 46:-0.424005 47:-1 48:-0.688 49:-0.962 50:-0.84 51:-1 52:-1 53:-0.778 54:-1 55:-0.952 56:-0.759998 57:-0.909 58:-1 59:-0.942 60:-0.2 61:-1 62:0.615998 63:-1 64:-0.9464 65:-0.95 66:-1 67:-0.944 68:-0.856001 69:-0.712002 70:-1 71:-0.846154 72:-0.759998 73:-0.433588 74:-0.52001 75:-0.912001 76:-0.744 77:-0.736 78:-0.890999 79:-0.709998 80:-0.53599 81:-1 82:-0.672998 83:-0.8 84:-0.936 85:-0.830666 86:0.97998 87:-0.88 88:-0.4 89:-1 90:-1 91:-0.666667 92:-0.76 93:-1 94:-0.865333 95:-0.6 96:-1 97:-0.763998 98:-0.780002 99:-0.844 100:-0.872 101:-0.573333 102:-1 103:-1 104:-0.872 105:-0.936 106:-0.854667 107:-0.639996 108:-0.688 109:-0.455634 110:-1 111:-1 112:-0.6 113:-1 114:-0.700001 115:-0.92 116:-0.696002 117:-1 118:-0.766995 119:-1 120:-0.542674 121:-1 122:-1 123:-1 124:-1 125:-1 126:-1 127:-0.704 128:-1 129:-0.639996 130:-0.560004 131:-0.9 132:-1 133:-1 134:-0.872 135:-0.639996 136:-0.8 137:-0.780002 138:-0.876 139:-0.888 140:-0.819998 141:-1 142:-1 143:-1 144:-0.96 145:-0.944 146:-0.92 147:-0.291994 148:-0.6 149:-0.972 150:-0.868 151:-1 152:-0.96 153:-0.924001 154:-0.84 155:-0.912001 156:-1 157:-1 158:-0.6 159:-0.811999 160:-0.447997 161:-1 162:-0.6 163:-1 164:-1 165:-0.709998 166:-0.763998 167:-1 168:-1 169:-1 170:-0.802 171:-1 172:-0.712002 173:-1 174:-1 175:-0.153004 176:-0.76 177:-1 178:-0.780002 179:1 180:-0.852 181:-0.760005 182:-0.111111 183:-0.514681 184:-0.944 185:-0.763005 186:-1 187:-1 188:-1 189:-0.784002 190:-0.536003 191:-0.92 192:-0.872 193:-1 194:-0.872 195:-0.780002 196:-1 197:-0.798 198:-1 199:-0.768002 200:-0.729997 201:-0.958667 202:-0.9 203:-0.728002 204:-0.8 205:-0.639996 206:-1 207:-1 208:-1 209:-0.8 210:-0.636 211:-0.670854 212:-0.775998 213:-1 214:-0.88 215:-0.908364 216:-1 217:-0.19598 218:-0.639996 219:-1 220:-0.556 221:0.160026 222:-0.891199 223:-1 224:-1 225:-0.904 226:-0.912001 227:-1 228:-1 229:-1 230:0.6 231:-0.580008 232:-0.666667 233:-0.768002 234:-0.9 235:-1 236:-0.884001 237:-1 238:-0.392005 239:-0.819998 240:-0.912001 241:-0.879999 242:-0.536003 243:-0.692308 244:-1 245:-0.916 246:-0.780002 247:-0.928001 248:-0.84 249:-1 250:-1 251:-0.333333 252:-0.68 253:-0.661333 254:-0.635203 255:-0.68 256:-0.759998 257:-1 258:-0.884001 259:0.959961 260:-0.765327 261:-0.92 262:0.679966 263:-0.884001 264:-0.884001 265:-1 266:-1 267:-0.95 268:-1 269:-0.848001 270:-1 271:-0.866001 272:-1 273:-1 274:-1 275:-1 276:-0.944444 277:-0.667995 278:-1 279:-0.874667 280:-1 281:-1 282:-1 283:-0.6 284:-0.952 285:-0.92 286:-0.879999 287:-0.960363 288:-0.704 289:-0.844 290:-0.852 291:-1 292:-0.802 293:-0.68 294:-0.812497 295:-0.906 296:-0.780569 297:-1 298:-0.568003 299:-1 300:-1 301:-0.942 302:-0.53599 303:-0.440011 304:-0.714286 305:-0.850667 306:-0.864001 307:-0.704 308:-0.766 309:-0.797714 310:-1 311:-0.9 312:-1 313:-0.759998 314:-1 315:-0.712002 316:-0.226006 317:-1 318:-0.842665 319:-0.856001 320:-1 321:-1 322:-0.639996 323:-0.873 324:-0.884615 325:-0.556 326:-1 327:-0.685337 328:-1 329:-0.884001 330:-1 331:-0.759998 332:-0.922 333:-1 334:-0.84 335:-1 336:-1 337:-1 
2.814867512842307 1.499377270413722 3.915331778571923 2.197049679307976 0:-1 1:-0.760005 2:-0.8 3:-0.536003 4:-1 5:-0.9 6:-0.768002 7:-0.76 8:-0.936 9:-0.68 10:-1 11:-0.866001 12:-1 13:-0.974667 14:-0.968 15:-1 16:-0.299996 17:-0.692308 18:-0.7968 19:-1 20:-0.852 21:-0.808 22:-0.924 23:-1 24:-0.9564 25:-1 26:-0.872 27:0.25 28:-0.568003 29:-0.863 30:-0.752796 31:-0.53599 32:0.0620409 33:-1 34:-1 35:-0.36 36:-1 37:-0.856001 38:-0.819998 39:-0.811201 40:-0.537332 41:-0.5 42:-0.759998 43:-1 44:-1 45:-0.879999 46:-0.568003 47:-1 48:-1 49:-0.962 50:-0.76 51:-0.968 52:-0.469003 53:-1 54:-0.103993 55:-0.952 56:-1 57:-0.909 58:-1 59:-0.942 60:-0.6 61:-1 62:-0.394001 63:-1 64:-0.9464 65:-0.875 66:-1 67:-0.944 68:-0.856001 69:-0.856001 70:-1 71:-0.846154 72:-1 73:-0.811196 74:-0.760005 75:-1 76:-0.744 77:-0.471999 78:-1 79:-1 80:0.160026 81:-0.8 82:-1 83:-0.84 84:-0.872 85:-0.830666 86:-0.340007 87:-1 88:-0.7 89:-1 90:-0.936 91:-0.5 92:-1 93:-1 94:-0.596 95:-0.68 96:-0.922 97:-0.527996 98:-0.780002 99:-0.844 100:-0.808 101:-0.914667 102:-1 103:-1 104:-0.872 105:-0.968 106:-0.564001 107:-0.819998 108:-0.532 109:-0.455634 110:-1 111:-0.730667 112:-0.6 113:-0.622 114:-0.94 115:-0.84 116:-1 117:-0.731993 118:-0.766995 119:-0.732002 120:-0.542674 121:-1 122:-0.807999 123:-0.92 124:-1 125:-1 126:-0.696002 127:-0.926 128:-0.862002 129:-0.639996 130:-1 131:-0.8 132:-1 133:-0.933333 134:-0.744 135:-0.879999 136:-0.6 137:-0.560004 138:-1 139:-1 140:-0.459995 141:-0.222395 142:-0.744 143:-1 144:-0.92 145:-0.86 146:-0.84 147:-0.763998 148:-0.6 149:-0.916 150:-1 151:-0.8 152:-0.96 153:-1 154:-1 155:-0.912001 156:-0.872 157:-0.884 158:-0.8 159:-0.717999 160:-0.815999 161:-1 162:-0.92 163:-0.736 164:-0.459995 165:-1 166:-0.527996 167:-1 168:-0.961818 169:-0.8 170:-0.802 171:-0.780002 172:-0.856001 173:-0.9 174:-0.986222 175:-0.879001 176:-0.92 177:-0.556443 178:-1 179:-0.333333 180:-0.704 181:-1 182:-0.222222 183:-0.272021 184:-0.972 185:-0.289015 186:-0.874667 187:-0.986783 188:-0.968 189:-0.784002 190:-1 191:-0.84 192:-0.872 193:-1 194:-0.744 195:-0.780002 196:-1 197:-0.798 198:-1 199:-1 200:-1 201:-0.958667 202:-0.95 203:-0.818668 204:-0.6 205:-1 206:-0.912001 207:-0.564009 208:-0.75 209:-0.88 210:-0.818 211:-0.231993 212:-0.775998 213:-1 214:-0.96 215:-0.816728 216:-0.778 217:-1 218:-0.639996 219:-1 220:-0.852 221:-1 222:-0.9456 223:-1 224:-0.780002 225:-0.872 226:-1 227:-0.844 228:-1 229:-0.68 230:-0.2 231:-0.580008 232:-1 233:-0.768002 234:-0.9 235:-0.880001 236:-0.884001 237:-1 238:-0.392005 239:-0.639996 240:-0.824002 241:-1 242:-0.768002 243:-0.384615 244:-1 245:-0.944 246:-0.780002 247:-0.928001 248:-0.76 249:-0.760005 250:-1 251:-1 252:-0.68 253:-0.830666 254:-0.878401 255:-1 256:-1 257:-1 258:-0.942 259:0.119978 260:-0.765327 261:-0.68 262:-0.440011 263:-0.768002 264:-0.420004 265:-1 266:-0.856001 267:-0.95 268:-0.906 269:-0.848001 270:-0.802 271:-0.866001 272:-0.798859 273:-0.95 274:-1 275:-1 276:-0.888889 277:-0.667995 278:-1 279:-0.937334 280:-0.824 281:-1 282:-0.84 283:-0.8 284:-0.952 285:-0.92 286:-1 287:-0.960363 288:-0.704 289:-0.532 290:-0.926 291:-0.92 292:-1 293:-0.68 294:-0.437491 295:-0.906 296:-0.890285 297:-0.842668 298:-1 299:-1 300:-0.282382 301:-0.942 302:-0.53599 303:-0.720006 304:-0.714286 305:-0.813334 306:-0.864001 307:-1 308:-0.844 309:-0.865143 310:-1 311:-0.5 312:-0.847555 313:-0.759998 314:-0.745999 315:-0.856001 316:-0.484004 317:-0.259999 318:-0.685331 319:-0.568003 320:-1 321:-0.876 322:-0.639996 323:-0.873 324:-1 325:-0.778 326:-1 327:-0.370673 328:-0.92 329:-0.710002 330:-0.968 331:-1 332:-0.844 333:-1 334:-0.936 335:-0.863636 336:-1 337:-1 
3.019352481262771 1.167055958785517 2.960684040145763 1.398745261517879 0:-0.780002 1:-0.760005 2:-0.4 3:-0.652002 4:-0.92 5:-0.95 6:-0.884001 7:-0.92 8:-1 9:-0.84 10:-1 11:-0.866001 12:-0.818182 13:-0.949333 14:-0.936 15:-1 16:-1 17:-1 18:-1 19:-0.850665 20:-0.852 21:-0.936 22:-0.924 23:-1 24:-1 25:-0.879999 26:-1 27:-0.75 28:-0.856001 29:-0.863 30:-0.011186 31:-0.303985 32:-0.645986 33:-0.970667 34:-0.815999 35:-1 36:-0.533999 37:-0.712002 38:-0.819998 39:-1 40:-0.768666 41:-0.75 42:-0.639996 43:-1 44:-0.84 45:-1 46:-0.712002 47:-1 48:-0.844 49:-0.924 50:-0.68 51:-0.904 52:-0.823001 53:-1 54:-0.551996 55:-1 56:-0.759998 57:-0.636 58:-0.924001 59:-1 60:-0.8 61:-0.912001 62:-0.798 63:-0.433608 64:-0.8392 65:-0.975 66:-1 67:-0.972 68:-0.856001 69:-0.712002 70:-0.884001 71:-0.846154 72:-0.759998 73:-0.622392 74:-1 75:-0.824002 76:-1 77:-0.604 78:-0.563997 79:-0.709998 80:-1 81:-0.2 82:-0.454996 83:-1 84:-0.872 85:-0.830666 86:-1 87:-0.92 88:-1 89:-0.856001 90:-0.68 91:-1 92:-1 93:-0.80667 94:-0.326667 95:-0.76 96:-0.844 97:-1 98:-0.780002 99:-1 100:-0.936 101:-0.829333 102:-0.932267 103:-0.546022 104:-0.744 105:-0.968 106:-0.273335 107:-1 108:-0.688 109:-0.0927236 110:-0.758001 111:-1 112:-0.7 113:-0.243999 114:-1 115:-1 116:-0.696002 117:-1 118:-0.300984 119:-0.732002 120:-1 121:-0.922 122:-0.952 123:-0.92 124:-0.879999 125:-0.720006 126:-1 127:-0.778 128:-0.862002 129:-0.639996 130:-0.560004 131:-1 132:-0.852 133:-0.933333 134:-0.616 135:-0.759998 136:-0.2 137:-0.780002 138:-0.876 139:-0.972 140:-0.819998 141:-1 142:-0.872 143:-0.68 144:-1 145:-0.972 146:-1 147:-1 148:-1 149:-1 150:-0.868 151:-0.7 152:-1 153:-0.924001 154:-1 155:-0.736003 156:-0.744 157:-0.806666 158:-0.8 159:-0.906 160:-0.815999 161:-0.916 162:-0.92 163:-0.736 164:-1 165:-0.564997 166:-0.527996 167:-0.919111 168:-1 169:-0.6 170:-1 171:-0.780002 172:-0.856001 173:-1 174:-0.972444 175:-0.879001 176:-0.76 177:-1 178:-0.890001 179:-0.777778 180:-1 181:-0.52001 182:-1 183:-0.75734 184:-0.972 185:-0.763005 186:-0.874667 187:-1 188:-0.84 189:-1 190:-1 191:-0.92 192:-1 193:-0.889335 194:-0.872 195:-1 196:-0.88 197:-1 198:-0.890001 199:-0.942 200:-0.909999 201:-0.876 202:-0.85 203:-0.909334 204:-0.9 205:-0.639996 206:-0.824002 207:-0.782004 208:-0.75 209:-0.84 210:-0.0899991 211:-0.451424 212:-0.887999 213:-0.738403 214:-1 215:-0.816728 216:-0.926 217:-0.463987 218:-0.639996 219:-1 220:-0.852 221:-0.0719796 222:-0.9456 223:-1 224:-1 225:-0.872 226:-0.736003 227:-0.844 228:-1 229:-0.52 230:-0.6 231:0.259975 232:-1 233:-0.884001 234:-1 235:-1 236:-0.768002 237:-0.962 238:-0.696002 239:-0.279993 240:-0.912001 241:-0.879999 242:-0.768002 243:-0.846154 244:-0.809714 245:-0.944 246:-1 247:-0.856001 248:-0.68 249:-1 250:-0.248014 251:-0.555556 252:-0.2 253:-0.322665 254:-0.878401 255:-0.68 256:-0.759998 257:-1 258:-1 259:-0.720006 260:-0.765327 261:-0.6 262:-0.720006 263:-0.304005 264:-0.884001 265:-0.888 266:-0.568003 267:-0.975 268:-0.811999 269:-0.924001 270:-0.802 271:-0.866001 272:-0.698288 273:-0.9 274:-1 275:-1 276:-0.944444 277:-0.667995 278:-0.2 279:-1 280:-0.868 281:-1 282:-0.52 283:-1 284:-0.855999 285:-0.84 286:-1 287:-0.960363 288:-0.852 289:-1 290:-0.926 291:-1 292:-1 293:-0.84 294:-0.624994 295:-1 296:-0.890285 297:-0.842668 298:-1 299:-0.459995 300:-0.521588 301:-0.942 302:0.160026 303:-0.440011 304:-0.714286 305:-0.962667 306:-1 307:-0.407999 308:-0.922 309:-0.932571 310:-1 311:-0.9 312:-0.390221 313:-0.879999 314:-1 315:-0.568003 316:-0.226006 317:-0.852 318:-0.685331 319:-0.712002 320:-1 321:-1 322:-1 323:-1 324:-0.961538 325:-0.778 326:-1 327:-1 328:-0.96 329:-0.942 330:-0.936 331:-1 332:-0.922 333:-0.219999 334:-1 335:-1 336:-0.885776 337:-1 
2.145865461627074 0.9875472377280089 1.304295385653731 1.617941237437339 0:-0.780002 1:-1 2:-0.8 3:-0.768002 4:-0.84 5:-0.65 6:-0.420004 7:-0.84 8:-0.872 9:-0.84 10:-0.857143 11:-0.866001 12:-1 13:-0.873334 14:-0.904 15:-1 16:-1 17:-1 18:-0.187198 19:-0.925333 20:-0.852 21:-0.68 22:-0.962 23:-0.916667 24:-1 25:-1 26:-1 27:-0.75 28:-0.856001 29:-0.863 30:-0.258389 31:-1 32:-0.291973 33:-0.765334 34:-0.447997 35:-1 36:-0.689332 37:-0.856001 38:-1 39:-0.811201 40:-0.768666 41:-0.75 42:-0.519995 43:-0.808 44:-1 45:-1 46:-1 47:-0.876 48:-0.688 49:-0.886 50:-0.84 51:-0.936 52:-1 53:-0.926 54:-0.551996 55:-1 56:-0.759998 57:-0.636 58:-0.772002 59:-0.768002 60:-1 61:-0.912001 62:-0.596 63:-0.575206 64:-0.8392 65:-0.775 66:-0.904 67:-0.972 68:-0.280006 69:-0.568003 70:-1 71:-1 72:-1 73:-1 74:-1 75:-0.912001 76:-0.488 77:-0.868 78:-0.890999 79:-1 80:-1 81:-0.6 82:-0.890999 83:-1 84:-1 85:-0.153332 86:-1 87:-0.96 88:-0.9 89:-1 90:-0.872 91:-1 92:-0.92 93:-0.80667 94:-0.865333 95:-0.76 96:-1 97:-1 98:-1 99:-1 100:-0.872 101:-0.829333 102:-0.729066 103:-1 104:-0.616 105:-1 106:-0.709334 107:-0.279993 108:-1 109:-0.818545 110:-0.758001 111:-1 112:-1 113:-0.622 114:-1 115:-1 116:-1 117:-0.463987 118:-0.53399 119:-0.866001 120:-0.771337 121:-1 122:-1 123:-0.92 124:-0.759998 125:-0.440011 126:-1 127:-0.778 128:-0.586007 129:-1 130:-0.780002 131:-0.8 132:-0.852 133:-1 134:-1 135:-0.879999 136:-0.2 137:-0.890001 138:-0.255999 139:-0.916 140:-0.819998 141:-0.611198 142:-0.872 143:-0.936 144:-1 145:-0.972 146:-1 147:-1 148:-0.6 149:-0.944 150:-0.868 151:-0.9 152:-0.96 153:-0.924001 154:-1 155:-0.736003 156:-1 157:-1 158:-1 159:-0.623998 160:-0.447997 161:-0.972 162:-0.92 163:-0.471999 164:-1 165:-0.709998 166:-0.527996 167:-0.878667 168:-0.961818 169:-1 170:-0.207999 171:-0.890001 172:-1 173:-0.8 174:-0.903556 175:-0.879001 176:-0.84 177:-0.778221 178:-0.780002 179:-0.777778 180:-0.556 181:-1 182:-1 183:-1 184:-0.972 185:-1 186:-0.874667 187:-0.960348 188:-0.968 189:-1 190:-1 191:-0.92 192:-0.936 193:-0.778669 194:-0.744 195:-1 196:-0.96 197:-1 198:-0.890001 199:-0.826001 200:-0.909999 201:-0.917333 202:-0.85 203:-0.909334 204:-1 205:-0.639996 206:-0.912001 207:-0.564009 208:-1 209:-0.96 210:-0.818 211:-0.561139 212:-1 213:-1 214:-0.96 215:-1 216:-0.926 217:-0.731993 218:-0.639996 219:-0.914667 220:-1 221:-0.767995 222:-0.891199 223:-1 224:-0.560004 225:-0.936 226:-0.736003 227:-1 228:-0.752 229:-0.68 230:-1 231:-0.790004 232:-1 233:-0.652002 234:-1 235:-0.640002 236:-1 237:-0.962 238:-0.696002 239:-0.819998 240:-0.736003 241:-0.759998 242:-0.768002 243:-1 244:-0.746285 245:-1 246:-0.890001 247:-0.928001 248:-1 249:-0.52001 250:-0.0600179 251:-1 252:-0.52 253:-0.830666 254:-1 255:-0.84 256:-0.759998 257:-0.941895 258:-0.884001 259:-0.720006 260:-0.765327 261:-1 262:-0.440011 263:-0.884001 264:-0.884001 265:-1 266:-1 267:-0.975 268:-0.623998 269:-0.620003 270:-0.604 271:-0.866001 272:-0.798859 273:-0.85 274:-0.72 275:-1 276:-0.888889 277:-1 278:-0.8 279:-0.624001 280:-0.78 281:-1 282:-0.84 283:-0.8 284:-0.952 285:-1 286:-1 287:-0.920727 288:-0.852 289:-1 290:-0.926 291:-1 292:-1 293:-0.84 294:-0.812497 295:-0.529998 296:-0.890285 297:-1 298:-0.856001 299:-1 300:-1 301:-0.884001 302:-0.0719796 303:-1 304:-1 305:-0.925333 306:-0.728002 307:-1 308:-1 309:-1 310:-0.853334 311:-1 312:-0.542665 313:-0.879999 314:-0.873 315:-0.856001 316:-0.742002 317:-0.852 318:-0.921333 319:-1 320:-1 321:-0.876 322:-0.759998 323:-0.364999 324:-0.961538 325:-0.778 326:-0.134012 327:-0.370673 328:-0.92 329:-0.942 330:-0.904 331:-1 332:-1 333:-0.844 334:-0.936 335:-0.636364 336:-0.885776 337:-0.879999 
0.9271168480315095 0.7827345296480547 0.9455134914573938 1.392610204853306 0:-0.133869 1:-1 2:-1 3:-1 4:-1 5:-1 6:-1 7:-1 8:-1 9:-1 10:-1 11:-0.472446 12:-1 13:-1 14:-0.874016 15:-1 16:-1 17:-1 18:-1 19:-0.706035 20:-0.417323 21:-0.748032 22:-1 23:-0.671917 24:-1 25:-1 26:-1 27:-1 28:-1 29:-1 30:-1 31:-1 32:-1 33:-1 34:-1 35:-1 36:-0.388451 37:-1 38:-1 39:-0.628348 40:-1 41:-0.01575 42:-1 43:-1 44:-0.68504 45:-1 46:-1 47:-1 48:-0.385827 49:-0.850394 50:-1 51:-1 52:-1 53:-1 54:-0.118105 55:-0.937008 56:-1 57:-1 58:-1 59:-0.771656 60:0.1811 61:-1 62:0.590546 63:-0.442529 64:-0.577954 65:-0.80315 66:-1 67:-1 68:-1 69:-0.433077 70:-1 71:0.211385 72:-1 73:0.486642 74:-1 75:-1 76:-1 77:-1 78:-1 79:-1 80:-1 81:-1 82:-1 83:-1 84:-1 85:1 86:-1 87:-1 88:-1 89:-1 90:-1 91:-1 92:-1 93:-1 94:0.0603643 95:-1 96:-1 97:-1 98:-1 99:-1 100:-1 101:-0.664043 102:-1 103:-1 104:-1 105:-0.874016 106:0.144352 107:-1 108:-1 109:-1 110:-1 111:-1 112:-1 113:-1 114:-1 115:-0.68504 116:-0.202108 117:-1 118:-1 119:-0.472446 120:-1 121:-1 122:-1 123:-1 124:-1 125:-1 126:-1 127:-1 128:-1 129:-1 130:-0.133869 131:-0.2126 132:-1 133:-1 134:-1 135:-1 136:-1 137:-0.566934 138:-0.511811 139:-1 140:-1 141:-1 142:-1 143:-0.496064 144:-0.84252 145:-0.889764 146:-1 147:-1 148:-1 149:-1 150:-0.480315 151:-1 152:-0.84252 153:-1 154:-1 155:-0.653547 156:-0.496064 157:-1 158:-0.2126 159:-1 160:-0.275588 161:-1 162:-1 163:0.559054 164:-1 165:-1 166:-1 167:-1 168:-0.849678 169:-1 170:-0.220473 171:-1 172:-1 173:-1 174:-1 175:-0.523625 176:-1 177:-1 178:-1 179:-0.125111 180:-1 181:-1 182:-1 183:-1 184:-1 185:-1 186:-0.753282 187:-1 188:-0.874016 189:-1 190:-1 191:-1 192:-0.748032 193:-1 194:-1 195:-1 196:-1 197:-1 198:-1 199:-0.771656 200:-1 201:-0.83727 202:-0.80315 203:-1 204:-1 205:-1 206:-1 207:-1 208:-1 209:-0.84252 210:-0.283465 211:-1 212:-1 213:-1 214:-1 215:-1 216:-1 217:-1 218:-0.0551106 219:-0.664043 220:-0.417323 221:-1 222:-1 223:-1 224:-1 225:-1 226:-0.653547 227:-1 228:-1 229:-1 230:-1 231:0.653507 232:-1 233:-1 234:-1 235:-1 236:-1 237:-1 238:0.196838 239:-1 240:-0.653547 241:-0.527555 242:-0.543311 243:-1 244:-1 245:-1 246:-1 247:-1 248:-0.37008 249:-1 250:-1 251:-1 252:-1 253:1 254:-1 255:-1 256:-1 257:-1 258:-0.314967 259:-1 260:-0.0760927 261:-0.68504 262:-1 263:-1 264:-1 265:-1 266:-1 267:-0.901575 268:-1 269:-1 270:-1 271:-0.472446 272:-1 273:-1 274:-1 275:-1 276:-1 277:-1 278:-1 279:-1 280:-0.653544 281:-1 282:-1 283:-0.2126 284:-0.811023 285:-1 286:-0.527555 287:-1 288:-0.417323 289:-1 290:-1 291:-1 292:-1 293:-1 294:-1 295:-1 296:-1 297:-1 298:-1 299:-1 300:-1 301:-1 302:0.826808 303:-1 304:-1 305:-0.706038 306:-1 307:-1 308:-1 309:-0.203601 310:-0.884515 311:-1 312:-0.399825 313:-1 314:1 315:-1 316:-1 317:0.165353 318:-1 319:-1 320:-1 321:-1 322:-1 323:1 324:-1 325:-1 326:-1 327:0.238829 328:-1 329:-1 330:-1 331:-1 332:-1 333:-1 334:-0.748032 335:-0.821045 336:-1 337:-1 
1.599503545637076 1.148608652390571 2.258991058927803 1.105642593389285 0:-1 1:-0.425811 2:-1 3:-0.583737 4:-0.90432 5:-0.9402 6:-1 7:-0.90432 8:-1 9:-1 10:-0.829143 11:-0.839737 12:-0.782545 13:-1 14:-0.846896 15:-0.827741 16:-0.162707 17:-1 18:-0.513843 19:-0.642754 20:0.0621971 21:-1 22:-0.909085 23:-0.601292 24:-1 25:-0.856479 26:-1 27:-0.102875 28:-0.827777 29:-0.344522 30:-0.408566 31:-0.722522 32:-1 33:-1 34:-1 35:-1 36:-1 37:-1 38:-0.784673 39:-0.661247 40:-0.723324 41:0.196125 42:-0.856479 43:-1 44:-0.90432 45:-0.712897 46:-0.827777 47:-1 48:-0.813424 49:-1 50:-1 51:-1 52:-1 53:-0.911496 54:-1 55:-0.885168 56:-0.569376 57:-0.891164 58:-1 59:-0.930632 60:-0.4019 61:-1 62:-0.275124 63:-1 64:-0.807657 65:-0.910288 66:-1 67:-1 68:-0.827777 69:-0.827777 70:-1 71:-1 72:-0.425854 73:-0.0966676 74:-1 75:-0.894753 76:-0.693824 77:-1 78:-0.869635 79:-0.30617 80:-0.16745 81:-0.7608 82:-0.739216 83:-0.85646 84:-1 85:-0.797477 86:-0.736883 87:-0.66508 88:0.19615 89:-0.827777 90:-0.540672 91:-0.202583 92:-0.8086 93:-0.537458 94:-0.838939 95:-0.8086 96:-1 97:-0.717741 98:-0.736828 99:-0.62677 100:-0.84688 101:-1 102:-1 103:-1 104:-0.846912 105:-0.961728 106:-0.304654 107:-0.784718 108:-0.813424 109:-1 110:-1 111:-0.838939 112:-0.8804 113:-0.773956 114:-0.712931 115:-0.90432 116:-0.878806 117:-1 118:-0.442535 119:-0.198553 120:-0.179443 121:-0.720097 122:-0.942592 123:-0.90432 124:-1 125:-1 126:-0.818209 127:-0.911496 128:-0.834955 129:-0.354064 130:-1 131:-0.8804 132:-1 133:-1 134:-0.69376 135:-0.856479 136:-0.7608 137:-0.605269 138:-1 139:-0.93301 140:-1 141:-0.06979 142:-1 143:-0.84688 144:-0.95216 145:-1 146:-0.90432 147:-1 148:-0.5216 149:-1 150:-0.842128 151:-1 152:-1 153:-0.909105 154:-0.8086 155:-0.894753 156:-0.69376 157:-1 158:-0.52155 159:-1 160:-1 161:-0.966512 162:-0.90432 163:-0.842128 164:-0.784718 165:-0.479664 166:-0.717741 167:-1 168:-1 169:-0.5215 170:-1 171:-0.868441 172:-0.48326 173:-1 174:-1 175:-1 176:-0.8086 177:-0.469395 178:-1 179:-0.468333 180:-0.468901 181:-0.138777 182:-0.335444 183:-1 184:-0.966512 185:-0.716554 186:-1 187:-1 188:-0.961728 189:-1 190:-0.861265 191:-0.90432 192:-1 193:-0.867644 194:-0.69376 195:-0.868441 196:-0.9043 197:-0.879204 198:-0.736828 199:-1 200:-1 201:-0.950565 202:-0.820575 203:-1 204:-0.8804 205:-0.569346 206:-1 207:-0.478446 208:-0.701 209:-0.85646 210:-1 211:-0.0813539 212:-1 213:-1 214:-1 215:-0.780761 216:-1 217:-0.358794 218:-0.569376 219:-1 220:-1 221:-0.444928 222:-0.934937 223:-1 224:-1 225:-1 226:-0.894753 227:-1 228:-1 229:-0.80864 230:-1 231:-0.24643 232:-0.601333 233:-0.861265 234:-0.1627 235:-1 236:-0.861265 237:-0.863637 238:-1 239:-0.569346 240:-0.894753 241:-1 242:-0.861265 243:-0.816 244:-0.924139 245:-0.832532 246:-0.736828 247:-1 248:-0.8086 249:-1 250:-1 251:-0.468333 252:-1 253:-1 254:-0.854568 255:-0.6172 256:-1 257:-1 258:-0.930632 259:-0.665127 260:-1 261:-0.61724 262:-0.330113 263:-1 264:-0.861265 265:-1 266:-1 267:-1 268:-0.887575 269:-0.818171 270:-1 271:-1 272:-1 273:-1 274:-1 275:-1 276:-0.933556 277:-0.801461 278:-0.5215 279:-1 280:-1 281:-0.834955 282:-0.6172 283:-0.2823 284:-0.88516 285:-0.90432 286:-0.712897 287:-1 288:-1 289:-0.62677 290:-1 291:-0.95216 292:-1 293:-0.80864 294:-0.551399 295:-1 296:-0.737506 297:-0.811831 298:-1 299:-1 300:-0.71391 301:-0.930632 302:-0.722522 303:-1 304:-0.658286 305:-0.821379 306:-1 307:-0.822992 308:-1 309:-0.838677 310:-1 311:-0.8804 312:0.0940966 313:-1 314:-1 315:-0.827777 316:-0.691434 317:-0.114811 318:-0.811788 319:-0.827777 320:-0.674691 321:-1 322:-1 323:-0.696152 324:-0.954 325:-0.734488 326:-0.741069 327:-0.623663 328:-0.95216 329:-1 330:-1 331:-1 332:-0.906712 333:-1 334:-0.961728 335:-0.89125 336:-0.863388 337:-0.856479 
1.807449759412875 1.669690201767861 2.310396029047197 0.8254738425369552 0:-0.560004 1:-1 2:-0.8 3:-1 4:-1 5:-0.75 6:-0.884001 7:-0.76 8:-0.936 9:-1 10:-0.857143 11:-1 12:-0.818182 13:-0.924 14:-1 15:-1 16:-0.299996 17:-0.384615 18:-0.593599 19:-0.925333 20:-0.556 21:-1 22:-0.962 23:-0.666667 24:-0.9564 25:-1 26:-0.936 27:-0.5 28:-0.568003 29:-1 30:-0.505593 31:-0.53599 32:-0.645986 33:-1 34:-0.815999 35:-0.52 36:-0.689332 37:-0.280006 38:-0.909999 39:-0.339202 40:-0.0746631 41:-0.75 42:-0.879999 43:-1 44:-0.92 45:-0.639996 46:-1 47:-0.627999 48:-0.844 49:-1 50:-0.84 51:-1 52:-0.823001 53:-0.852 54:-0.775998 55:-0.968 56:-1 57:-0.909 58:-1 59:-0.594003 60:-0.4 61:-0.824002 62:-0.798 63:-1 64:-0.732 65:-1 66:-1 67:-0.972 68:-0.712002 69:-1 70:-0.652002 71:-1 72:-0.759998 73:-0.244784 74:-1 75:-0.912001 76:-0.232 77:-1 78:-0.781999 79:0.160009 80:-0.53599 81:-1 82:-0.890999 83:-1 84:-0.936 85:-0.661333 86:-0.780002 87:-0.84 88:-1 89:-0.856001 90:-1 91:-0.5 92:-1 93:-0.42001 94:-0.865333 95:-1 96:-0.844 97:-0.763998 98:-0.890001 99:-0.844 100:-0.808 101:-1 102:-1 103:-1 104:-1 105:-1 106:-0.854667 107:-0.639996 108:-1 109:-0.818545 110:-0.879001 111:-0.865333 112:-0.9 113:-0.811 114:-1 115:-0.92 116:-0.493337 117:-0.463987 118:-1 119:-0.866001 120:0.60064 121:-0.766 122:-1 123:-1 124:-0.879999 125:-0.720006 126:-0.696002 127:-0.778 128:-0.862002 129:-0.639996 130:-1 131:-1 132:-0.852 133:-0.866667 134:-0.744 135:-0.759998 136:-0.6 137:-0.780002 138:-0.876 139:-0.944 140:-1 141:0.166407 142:-0.488 143:-0.744 144:-1 145:-0.972 146:-0.84 147:-1 148:-0.2 149:-0.916 150:-0.471999 151:-0.9 152:-0.96 153:-0.924001 154:-1 155:-1 156:-0.872 157:-0.961333 158:-1 159:-0.906 160:-0.815999 161:-0.916 162:-0.76 163:-0.868 164:-1 165:-0.854999 166:-0.763998 167:-1 168:-1 169:-0.4 170:-0.802 171:-0.780002 172:-0.856001 173:-0.6 174:-1 175:-0.879001 176:-0.92 177:-0.556443 178:-0.780002 179:-0.555556 180:-1 181:-0.52001 182:-0.666667 183:-0.75734 184:-0.972 185:-0.763005 186:-0.937334 187:-1 188:-0.968 189:-1 190:-0.768002 191:-1 192:-0.936 193:-0.889335 194:-0.872 195:-0.450005 196:-1 197:-0.798 198:-1 199:-0.884001 200:-0.819998 201:-0.958667 202:-0.75 203:-0.637336 204:-0.8 205:-0.819998 206:-0.824002 207:-1 208:-0.5 209:-0.84 210:-0.818 211:-0.670854 212:-0.887999 213:-0.912801 214:-1 215:-0.908364 216:-0.852 217:-0.731993 218:-0.399994 219:-0.744 220:-1 221:-0.53599 222:-0.9456 223:-0.879999 224:-0.780002 225:-0.968 226:-0.912001 227:-1 228:-1 229:-0.84 230:-0.6 231:-0.790004 232:-0.666667 233:-1 234:-0.8 235:-1 236:-0.652002 237:-0.924 238:-1 239:-0.279993 240:-1 241:-1 242:-0.768002 243:-0.846154 244:-0.809714 245:-0.916 246:-1 247:-0.928001 248:-0.68 249:-0.280014 250:-0.812004 251:-0.111111 252:-0.36 253:-1 254:-0.756802 255:-0.68 256:-0.759998 257:-0.825685 258:-0.942 259:-1 260:-1 261:-0.92 262:-0.720006 263:-0.768002 264:-0.884001 265:-0.972 266:-0.856001 267:-0.925 268:-1 269:-0.848001 270:-1 271:-0.732002 272:-0.899429 273:-1 274:-1 275:-1 276:-0.944444 277:-0.833997 278:-0.4 279:-0.937334 280:-0.956 281:-1 282:-0.52 283:-0.6 284:-0.952 285:-0.68 286:-0.879999 287:-1 288:-0.556 289:-0.844 290:-0.926 291:-1 292:-1 293:-0.68 294:-1 295:-0.906 296:-0.670854 297:-1 298:-0.568003 299:-0.819998 300:-0.282382 301:-0.942 302:0.624036 303:-0.720006 304:-0.428571 305:-0.888 306:-1 307:-0.852 308:-0.922 309:-1 310:-0.970667 311:-0.7 312:0.0671138 313:-0.879999 314:-0.873 315:-0.856001 316:-1 317:-0.556 318:-0.842665 319:-0.856001 320:-0.728002 321:-0.938 322:-1 323:-0.745999 324:-0.961538 325:-0.333999 326:-1 327:-0.370673 328:-1 329:-0.884001 330:-1 331:-1 332:-0.922 333:-0.844 334:-0.968 335:-1 336:-0.771553 337:-0.639996 
1.454284953336748 0.6086084398223849 1.468860932487443 1.257825595278533 0:-1 1:-1 2:-0.4 3:-0.420004 4:-1 5:-0.6 6:-0.768002 7:-1 8:-0.872 9:-1 10:-1 11:-1 12:-0.636364 13:-0.949333 14:-0.936 15:-1 16:-0.299996 17:-0.846154 18:-0.187198 19:-0.850665 20:-0.407999 21:-0.936 22:-1 23:-0.583333 24:-1 25:-0.639996 26:-0.872 27:-1 28:-0.568003 29:-0.725999 30:-0.011186 31:-1 32:-1 33:-1 34:-1 35:-0.52 36:-1 37:-0.424005 38:-1 39:-0.339202 40:-0.537332 41:-0.75 42:-1 43:-0.968 44:-0.92 45:-0.759998 46:-0.856001 47:-0.752 48:-1 49:-0.962 50:-0.68 51:-0.968 52:-0.823001 53:-0.778 54:-0.551996 55:-0.968 56:-0.879999 57:-1 58:-0.924001 59:-0.942 60:-0.9 61:-0.824002 62:-0.798 63:-0.575206 64:-0.8392 65:-1 66:-1 67:-0.972 68:-0.856001 69:-0.856001 70:-0.652002 71:-1 72:-0.639996 73:-1 74:-1 75:-1 76:-0.744 77:-1 78:-1 79:-0.129993 80:-0.53599 81:-1 82:-0.781999 83:-1 84:-0.808 85:-0.661333 86:-0.560004 87:-0.84 88:-0.6 89:-0.712002 90:-0.552 91:0.166667 92:-0.92 93:-0.42001 94:-0.461334 95:-0.76 96:-0.922 97:-1 98:-1 99:-0.532 100:-0.872 101:-1 102:-1 103:-0.546022 104:-0.872 105:-0.936 106:-0.709334 107:-0.819998 108:-0.688 109:-0.818545 110:-1 111:-1 112:-0.9 113:-0.622 114:-0.880001 115:-1 116:-0.493337 117:-0.731993 118:-0.300984 119:-0.866001 120:-0.0853484 121:-0.922 122:-1 123:-0.84 124:-1 125:-0.720006 126:-1 127:-0.704 128:-0.862002 129:-1 130:-0.780002 131:-1 132:-1 133:-0.866667 134:-0.744 135:-1 136:-1 137:-0.890001 138:-0.876 139:-1 140:-1 141:0.55521 142:-0.616 143:-0.68 144:-0.96 145:-0.972 146:-0.68 147:-1 148:0.6 149:-1 150:-0.868 151:-1 152:-1 153:-0.848001 154:-0.92 155:-1 156:-1 157:-1 158:-1 159:-1 160:-0.631998 161:-1 162:-0.76 163:-1 164:-0.639996 165:-1 166:-0.527996 167:-0.959556 168:-1 169:-0.6 170:-0.604 171:-0.780002 172:-0.424005 173:-0.8 174:-0.972444 175:-0.879001 176:-0.76 177:-0.778221 178:-0.890001 179:-0.333333 180:-0.407999 181:-0.52001 182:-0.888889 183:-0.514681 184:-0.832 185:-0.763005 186:-1 187:-0.986783 188:-0.936 189:-0.856001 190:-0.884001 191:-0.92 192:-1 193:-0.889335 194:-0.872 195:-0.890001 196:-0.88 197:-0.899 198:-0.780002 199:-0.942 200:-1 201:-0.958667 202:-0.7 203:-0.909334 204:-1 205:-0.819998 206:-0.912001 207:-1 208:-0.5 209:-0.92 210:-0.818 211:-0.780569 212:-1 213:-0.912801 214:-1 215:-0.725092 216:-0.852 217:-0.731993 218:-0.639996 219:-0.744 220:-0.852 221:-0.303985 222:-0.9456 223:-0.759998 224:-1 225:-0.936 226:-0.912001 227:-1 228:-0.876 229:-0.36 230:0.6 231:-0.580008 232:-0.666667 233:-0.768002 234:-0.9 235:-0.94 236:-0.768002 237:-0.848 238:-1 239:-0.279993 240:-0.912001 241:-1 242:-1 243:-0.692308 244:-1 245:-0.972 246:-0.670003 247:-1 248:-0.92 249:0.679966 250:-1 251:-0.777778 252:-0.84 253:-0.661333 254:-0.756802 255:-0.84 256:-0.759998 257:-1 258:-1 259:-1 260:-1 261:-0.76 262:-0.160017 263:-1 264:-1 265:-1 266:-0.856001 267:-0.925 268:-1 269:-0.772002 270:-1 271:-1 272:-1 273:-0.9 274:-0.96 275:-1 276:-1 277:-0.833997 278:-0.8 279:-0.874667 280:-0.956 281:-1 282:-0.84 283:-0.6 284:-1 285:-1 286:-0.879999 287:-1 288:-0.704 289:-0.532 290:-0.926 291:-1 292:-0.604 293:-1 294:-0.437491 295:-1 296:-0.890285 297:-0.842668 298:-0.856001 299:-0.819998 300:-0.521588 301:-0.942 302:0.392031 303:-0.440011 304:-1 305:-0.888 306:-1 307:-0.852 308:-1 309:-0.865143 310:-1 311:-0.8 312:-0.085331 313:-1 314:-0.873 315:-0.568003 316:-0.484004 317:-0.111999 318:-0.606663 319:-0.712002 320:-0.456004 321:-1 322:-1 323:-0.745999 324:-1 325:-1 326:-0.783503 327:-1 328:-1 329:-0.942 330:-1 331:-0.879999 332:-0.844 333:-0.688 334:-1 335:-0.954545 336:-1 337:-1 
1.1967257454412 0.6695236613713019 1.482499870311255 1.820027737914258 0:-0.264217 1:-0.598728 2:-1 3:-1 4:-1 5:-1 6:-1 7:-1 8:-1 9:-0.46488 10:-0.0444286 11:-1 12:-0.696 13:-0.957643 14:-0.946496 15:-1 16:-0.707398 17:-1 18:-1 19:-0.875156 20:-0.257557 21:-0.892992 22:-1 23:-0.721292 24:-1 25:-0.799358 26:-1 27:-0.582 28:-0.759234 29:-0.770935 30:-0.173228 31:-1 32:-1 33:-1 34:-0.69235 35:-1 36:-1 37:-0.0367917 38:-1 39:-0.68428 40:-0.226303 41:0.67225 42:-1 43:-1 44:-0.73244 45:-0.598656 46:-0.759234 47:-1 48:-1 49:-1 50:-1 51:-1 52:-1 53:-1 54:-0.625469 55:-0.973248 56:-1 57:-1 58:-0.872929 59:-0.903025 60:-0.8328 61:-1 62:0.013332 63:-0.763248 64:-0.820735 65:-1 66:-1 67:-1 68:-0.759234 69:-0.759234 70:-0.806049 71:-1 72:-0.799358 73:-1 74:-1 75:-1 76:-1 77:-1 78:-0.817751 79:-0.515116 80:-1 81:0.0033 82:-0.817751 83:-0.93312 84:-0.785952 85:0.132673 86:0.103619 87:-1 88:-0.8328 89:-1 90:-0.571904 91:-1 92:-1 93:-0.676752 94:-1 95:-1 96:-1 97:-1 98:-0.816082 99:-0.739168 100:-0.892992 101:-1 102:-1 103:-1 104:-1 105:-1 106:-0.270937 107:-1 108:-0.739168 109:-0.393123 110:-1 111:-1 112:-1 113:-0.683992 114:-0.899681 115:-0.86624 116:-0.830572 117:-0.551893 118:-1 119:-0.551841 120:-1 121:-1 122:-0.839463 123:-1 124:-1 125:-1 126:-0.49164 127:-0.876272 128:-1 129:-0.699037 130:-1 131:-0.8328 132:-1 133:-0.665567 134:-0.785984 135:-1 136:-1 137:-0.816082 138:-1 139:-1 140:-1 141:-1 142:-1 143:-0.678944 144:-1 145:-1 146:-1 147:-0.605404 148:-1 149:-1 150:-1 151:-1 152:-0.93312 153:-1 154:-1 155:-1 156:-0.785984 157:-1 158:-0.66555 159:-1 160:-1 161:-0.906354 162:-0.59868 163:-1 164:-1 165:-1 166:-1 167:-1 168:-1 169:-0.3311 170:-1 171:-0.632109 172:-1 173:-1 174:-1 175:-1 176:-0.73244 177:-0.258261 178:-0.816082 179:-0.628444 180:-0.752544 181:-0.598728 182:-0.814222 183:-0.188425 184:-0.953184 185:-0.603745 186:-1 187:-1 188:-0.946496 189:-0.759198 190:-0.612041 191:-1 192:-0.892992 193:-1 194:-1 195:-0.0802992 196:-0.93312 197:-0.493334 198:-1 199:-1 200:-0.698992 201:-1 202:-0.749175 203:-0.545174 204:-0.8328 205:-0.699037 206:-1 207:-1 208:-0.582 209:-0.93312 210:-0.695696 211:-0.633057 212:-0.625413 213:-1 214:-1 215:-0.693524 216:-0.876272 217:0.344456 218:-0.598656 219:-0.857323 220:-1 221:-0.612087 222:-0.727101 223:-1 224:-1 225:-0.946496 226:-0.558552 227:-0.478257 228:-0.792672 229:-0.73248 230:-1 231:-0.648887 232:-1 233:-1 234:-0.49835 235:-0.899681 236:-0.224081 237:-1 238:-0.491716 239:-0.699037 240:-1 241:-1 242:-1 243:-0.228231 244:-1 245:-0.953184 246:-1 247:-1 248:-0.33112 249:-0.598728 250:-1 251:-0.256778 252:-1 253:-0.716874 254:-0.796686 255:-0.73248 256:-1 257:-0.902849 258:-1 259:0.404592 260:-1 261:-0.86624 262:-1 263:-0.806049 264:-1 265:-0.906354 266:-0.518396 267:-1 268:-1 269:-0.872929 270:-1 271:-0.551841 272:-0.831846 273:-1 274:-1 275:-1 276:-1 277:-1 278:-0.3311 279:-1 280:-1 281:-1 282:-0.46488 283:-0.6656 284:-0.438134 285:-0.86624 286:-1 287:-1 288:-1 289:-0.478257 290:-1 291:-1 292:-1 293:-0.46488 294:-0.686495 295:-1 296:-0.816556 297:-0.473804 298:-1 299:-1 300:1 301:-1 302:-1 303:-0.0635587 304:-1 305:-0.812718 306:-1 307:-1 308:-1 309:-0.661744 310:-1 311:-0.8328 312:0.0197035 313:-1 314:-1 315:-0.759234 316:-0.137126 317:-0.010027 318:-0.473794 319:-0.0367917 320:-1 321:-1 322:-1 323:-0.362903 324:-0.935692 325:-1 326:-1 327:-1 328:-0.79934 329:-0.903025 330:-1 331:-1 332:-0.869584 333:-0.739168 334:-1 335:-0.924 336:-0.809018 337:-0.799358 
2.977013610797659 2.522818149909583 4.168316610301875 2.185316279687443 0:-0.340007 1:-0.280014 2:-0.8 3:-0.768002 4:-0.84 5:-1 6:-1 7:-1 8:-0.936 9:-0.52 10:-1 11:-0.732002 12:-0.272727 13:-0.974667 14:-1 15:-0.784002 16:-1 17:-0.0769231 18:-0.593599 19:-0.850665 20:-0.852 21:-0.872 22:-1 23:-0.833333 24:-1 25:-0.759998 26:-0.872 27:-1 28:-1 29:-0.863 30:-0.752796 31:-0.53599 32:-0.291973 33:-1 34:-1 35:-0.68 36:-0.844666 37:-0.280006 38:-1 39:-1 40:-0.768666 41:-0.75 42:-0.519995 43:-0.968 44:-0.84 45:-0.639996 46:-1 47:-1 48:-0.688 49:-1 50:-1 51:-0.904 52:-0.469003 53:-1 54:-0.551996 55:-0.984 56:-0.879999 57:-0.909 58:-0.924001 59:-0.652002 60:-1 61:-0.824002 62:-0.798 63:-1 64:-0.8392 65:-0.85 66:-1 67:-1 68:-0.856001 69:-0.712002 70:-1 71:-0.846154 72:-0.519995 73:-0.811196 74:-0.760005 75:-0.824002 76:-0.744 77:-1 78:-0.890999 79:-1 80:-1 81:-1 82:-0.672998 83:-0.96 84:-1 85:-0.830666 86:-0.780002 87:-0.84 88:-0.9 89:-0.712002 90:-1 91:-0.666667 92:-0.92 93:-0.42001 94:-0.326667 95:-0.84 96:-0.922 97:-1 98:-0.780002 99:-0.688 100:-0.808 101:-0.914667 102:-1 103:-1 104:-0.872 105:-0.936 106:-0.273335 107:-0.099991 108:-0.532 109:-0.818545 110:-0.879001 111:-0.865333 112:-1 113:-0.811 114:-1 115:-0.92 116:-1 117:-0.731993 118:-0.766995 119:-0.732002 120:-0.771337 121:-1 122:-0.855999 123:-0.52 124:-0.879999 125:-1 126:-0.848001 127:-0.926 128:-0.586007 129:-1 130:-1 131:-1 132:-0.704 133:-1 134:-0.616 135:-0.639996 136:-1 137:-0.780002 138:-0.752 139:-0.972 140:-0.639996 141:-0.611198 142:-1 143:-0.872 144:-0.88 145:-1 146:-1 147:-0.763998 148:-1 149:-0.972 150:-0.868 151:-0.8 152:-0.92 153:-0.848001 154:-1 155:-0.824002 156:-0.872 157:-0.922666 158:-0.9 159:-1 160:-0.815999 161:-0.972 162:-0.84 163:-0.604 164:-1 165:-0.419996 166:-0.0559915 167:-1 168:-1 169:-1 170:-0.604 171:-1 172:-0.712002 173:-1 174:-0.986222 175:-0.879001 176:-0.68 177:-0.556443 178:-0.670003 179:-0.333333 180:-1 181:-1 182:-0.888889 183:-0.75734 184:-0.916 185:-0.763005 186:-0.812001 187:-0.973565 188:-0.904 189:-0.856001 190:-0.884001 191:-0.92 192:-0.744 193:-1 194:-0.744 195:-0.560004 196:-0.92 197:-0.697 198:-1 199:-0.884001 200:-0.819998 201:-0.958667 202:-0.85 203:-0.909334 204:-0.6 205:-0.639996 206:-0.824002 207:-1 208:-0.75 209:-0.92 210:-0.453999 211:-0.780569 212:-0.887999 213:-0.912801 214:-0.96 215:-0.816728 216:-0.778 217:-1 218:-0.639996 219:-0.914667 220:-0.704 221:-1 222:-0.9456 223:-0.879999 224:-0.780002 225:-1 226:-0.736003 227:-1 228:-1 229:-1 230:-1 231:-1 232:-1 233:-0.536003 234:-0.8 235:-0.94 236:-0.768002 237:-0.924 238:-1 239:-0.459995 240:-0.824002 241:-1 242:-0.652002 243:-0.692308 244:-0.873143 245:-0.916 246:-0.890001 247:-0.856001 248:-0.76 249:-0.760005 250:-0.436011 251:-0.333333 252:-0.68 253:-0.322665 254:-0.756802 255:-0.52 256:-0.759998 257:-0.825685 258:-0.942 259:-1 260:-0.765327 261:-0.92 262:-0.160017 263:-0.884001 264:-1 265:-1 266:-0.856001 267:-0.9 268:-0.906 269:-0.772002 270:-0.802 271:-1 272:-0.899429 273:-0.95 274:-0.96 275:-0.906666 276:-1 277:-0.667995 278:-0.4 279:-0.937334 280:-0.824 281:-1 282:0.12 283:-0.2 284:-1 285:-0.84 286:-0.879999 287:-0.960363 288:-1 289:-0.532 290:-0.926 291:-0.96 292:-0.405999 293:-0.68 294:-0.812497 295:-0.906 296:-1 297:-0.685337 298:-1 299:-0.639996 300:-0.760794 301:-1 302:-1 303:-0.720006 304:-0.714286 305:-0.738667 306:-0.864001 307:-1 308:-0.844 309:-0.865143 310:-0.941333 311:-1 312:-1 313:-1 314:-1 315:-0.712002 316:-1 317:-0.556 318:-0.921333 319:-0.712002 320:-0.456004 321:-1 322:-0.879999 323:-0.873 324:-1 325:-1 326:-1 327:-1 328:-0.96 329:-0.826001 330:-0.968 331:-1 332:-0.922 333:-0.688 334:-0.904 335:-1 336:-0.771553 337:-0.759998 
0.4728852692272412 0 0 1.020009773951214 0:-0.679353 1:-0.300294 2:-0.7085 3:-0.830931 4:-0.8834 5:-0.854225 6:-1 7:-0.8834 8:-1 9:-1 10:-1 11:-0.804697 12:-0.469909 13:-0.926141 14:-1 15:-0.895061 16:-0.744936 17:-1 18:-1 19:-1 20:-0.568506 21:-0.90672 22:-0.944615 23:-0.757042 24:-1 25:-1 26:-0.90672 27:-1 28:-0.790122 29:-1 30:-0.279278 31:-0.661853 32:-1 33:-1 34:-0.731818 35:-0.7668 36:-1 37:0.469364 38:-1 39:-0.449555 40:-0.66283 41:-0.271125 42:-1 43:-1 44:-1 45:-1 46:-0.790122 47:-1 48:-1 49:-1 50:-1 51:-1 52:-1 53:-1 54:-1 55:-0.953352 56:-0.825098 57:-1 58:-1 59:-0.746368 60:-1 61:-1 62:0.472276 63:-0.793621 64:-0.765608 65:-0.927113 66:-1 67:-1 68:-1 69:-1 70:-1 71:-0.775769 72:-0.825098 73:-0.449542 74:-1 75:-1 76:-0.253632 77:-1 78:-1 79:-1 80:-0.661853 81:-0.4169 82:-0.364417 83:-0.9417 84:-0.813408 85:-1 86:-0.679353 87:-0.88338 88:-0.85425 89:-0.580171 90:-0.626816 91:-1 92:-0.53352 93:-0.436346 94:-0.803724 95:-0.76676 96:-0.658906 97:-1 98:-0.839677 99:-0.77263 100:-0.626816 101:-1 102:-1 103:-1 104:-1 105:-0.906704 106:-0.364459 107:-0.737647 108:-1 109:-0.735529 110:-1 111:-1 112:-0.85425 113:-1 114:-0.825071 115:-0.8834 116:-0.852308 117:-0.60938 118:-1 119:-0.804697 120:1 121:-0.886315 122:-1 123:-0.8834 124:-0.825098 125:-0.591908 126:-1 127:-0.676398 128:-1 129:-1 130:-1 131:-0.27115 132:-1 133:-0.611267 134:-0.253632 135:-1 136:-0.7085 137:-1 138:-0.81927 139:-0.877556 140:-1 141:-0.43332 142:-1 143:-1 144:-0.9417 145:-0.918366 146:-1 147:-0.656027 148:-1 149:-1 150:-0.80761 151:-1 152:-0.88338 153:-0.889231 154:-1 155:-1 156:-0.81344 157:-1 158:-0.85425 159:-0.862994 160:-1 161:-0.918366 162:-0.76676 163:-0.422763 164:-0.475205 165:-0.577249 166:-0.656027 167:-0.941052 168:-1 169:-0.4169 170:-1 171:-0.839677 172:-0.790122 173:-1 174:-1 175:-0.823643 176:-0.8834 177:-0.353404 178:-1 179:-0.352111 180:-0.78429 181:-1 182:0.133778 183:-1 184:-0.95919 185:-0.65458 186:-1 187:-1 188:-1 189:-0.790086 190:-1 191:-1 192:-0.90672 193:-1 194:-0.81344 195:-0.518975 196:-0.9417 197:-1 198:-0.198273 199:-0.915466 200:-1 201:-1 202:-0.70845 203:-1 204:-1 205:-1 206:-1 207:-1 208:-1 209:-0.82508 210:-0.734735 211:-0.680125 212:-0.836759 213:-1 214:-1 215:-1 216:-1 217:-0.218626 218:-0.125371 219:-0.875627 220:-0.568506 221:-0.323589 222:-0.920712 223:-1 224:-1 225:-0.906704 226:-1 227:-1 228:-1 229:-1 230:0.1662 231:-0.387757 232:-1 233:-0.830931 234:-0.5627 235:-0.91255 236:-0.492736 237:-0.944615 238:-1 239:0.311943 240:-1 241:-1 242:-0.661804 243:-0.551462 244:-1 245:-0.95919 246:-1 247:-0.475232 248:-0.65016 249:-1 250:-1 251:-1 252:-0.53352 253:-1 254:-0.822769 255:-0.7668 256:-1 257:-1 258:-1 259:-0.183676 260:-1 261:-1 262:-0.183676 263:-1 264:-0.492736 265:-1 266:-0.580171 267:-1 268:-1 269:-0.889231 270:-1 271:-0.609326 272:-1 273:-1 274:-0.9417 275:-1 276:-1 277:-0.516019 278:-1 279:-1 280:-1 281:-1 282:-0.53352 283:-0.7085 284:-0.790095 285:-1 286:-1 287:-0.94223 288:-1 289:-0.77263 290:-1 291:-1 292:-0.711415 293:-0.53352 294:-0.726714 295:-0.725942 296:-1 297:-1 298:-0.790122 299:-1 300:-0.651357 301:-0.915466 302:-0.661853 303:-1 304:-1 305:-1 306:-1 307:-0.78429 308:-1 309:-0.803412 310:-0.957247 311:-0.12535 312:1 313:-1 314:-0.814897 315:-0.790122 316:-0.623968 317:-0.137011 318:-0.770645 319:-1 320:-1 321:-1 322:-1 323:-1 324:-0.943942 325:-0.676435 326:-0.684456 327:-0.541378 328:-0.9417 329:-0.915466 330:-0.95336 331:-1 332:-1 333:-0.545182 334:-0.906704 335:-1 336:-1 337:-0.825098 
0.9147720069131766 0.7302730609886843 1.019951789605118 1.284015113155417 0:-1 1:-1 2:-1 3:-1 4:-1 5:-1 6:-1 7:-1 8:-1 9:-1 10:-1 11:-1 12:-1 13:-1 14:0.6 15:-1 16:-1 17:-1 18:-1 19:-1 20:-1 21:-1 22:-1 23:-1 24:-1 25:-1 26:-1 27:-1 28:-1 29:-1 30:-1 31:-1 32:-1 33:-1 34:-1 35:-1 36:-1 37:-1 38:-1 39:-1 40:-1 41:-1 42:-1 43:-1 44:-1 45:-1 46:-1 47:-1 48:-1 49:-1 50:-1 51:-1 52:-1 53:-1 54:-1 55:0.6 56:-1 57:-1 58:-1 59:-1 60:-1 61:-1 62:-1 63:-1 64:-1 65:-1 66:-1 67:-1 68:-1 69:-1 70:-1 71:-1 72:-1 73:-1 74:-1 75:-1 76:-1 77:-1 78:-1 79:-1 80:-1 81:-1 82:-1 83:1 84:-1 85:-1 86:-1 87:1 88:-1 89:-1 90:-1 91:-1 92:-1 93:-1 94:-1 95:-1 96:-1 97:-1 98:-1 99:-1 100:-1 101:-1 102:-1 103:-1 104:-1 105:-1 106:-1 107:-1 108:-1 109:-1 110:-1 111:-1 112:-1 113:-1 114:-1 115:-1 116:-1 117:-1 118:-1 119:-1 120:-1 121:-1 122:-1 123:-1 124:-1 125:-1 126:-1 127:-1 128:-1 129:-1 130:-1 131:-1 132:-1 133:-1 134:-1 135:-1 136:-1 137:-1 138:-1 139:-1 140:-1 141:-1 142:-1 143:-1 144:-1 145:-1 146:-1 147:-1 148:-1 149:-1 150:-1 151:-1 152:1 153:-1 154:-1 155:-1 156:-1 157:-1 158:-1 159:-1 160:-1 161:-1 162:-1 163:-1 164:-1 165:-1 166:-1 167:-1 168:-1 169:-1 170:-1 171:-1 172:-1 173:-1 174:-1 175:-1 176:-1 177:-1 178:-1 179:-1 180:-1 181:-1 182:-1 183:-1 184:-1 185:-1 186:-1 187:-1 188:-1 189:-1 190:-1 191:-1 192:-1 193:-1 194:-1 195:-1 196:1 197:-1 198:-1 199:-1 200:-1 201:-1 202:-1 203:-1 204:-1 205:-1 206:-1 207:-1 208:-1 209:1 210:-1 211:-1 212:-1 213:-1 214:1 215:-1 216:-1 217:-1 218:-1 219:-1 220:-1 221:-1 222:-1 223:-1 224:-1 225:-1 226:-1 227:-1 228:-1 229:-1 230:-1 231:-1 232:-1 233:-1 234:-1 235:-1 236:-1 237:-1 238:-1 239:-1 240:-1 241:-1 242:-1 243:-1 244:-1 245:-1 246:-1 247:-1 248:-1 249:-1 250:-1 251:-1 252:-1 253:-1 254:-1 255:-1 256:-1 257:-1 258:-1 259:-1 260:-1 261:-1 262:-1 263:-1 264:-1 265:-1 266:-1 267:-1 268:-1 269:-1 270:-1 271:-1 272:-1 273:-1 274:-1 275:-1 276:-1 277:-1 278:-1 279:-1 280:-1 281:-1 282:-1 283:-1 284:-1 285:-1 286:-1 287:-1 288:-1 289:-1 290:-1 291:-1 292:-1 293:-1 294:-1 295:-1 296:-1 297:-1 298:-1 299:-1 300:-1 301:-1 302:-1 303:-1 304:-1 305:-1 306:-1 307:-1 308:-1 309:-1 310:-1 311:-1 312:-1 313:-1 314:-1 315:-1 316:-1 317:-1 318:-1 319:-1 320:-1 321:-1 322:-1 323:-1 324:-1 325:-1 326:-1 327:-1 328:1 329:-1 330:-1 331:-1 332:-1 333:-1 334:-1 335:-1 336:-1 337:-1 
1.211312155559513 0.7038150874349873 0.9222031913704373 1.589768436177696 0:-1 1:-1 2:-1 3:-1 4:-1 5:-1 6:-1 7:-1 8:-1 9:-1 10:-1 11:0.674986 12:-1 13:-1 14:-1 15:-1 16:-1 17:-1 18:-1 19:0.400011 20:-1 21:-1 22:-1 23:0.5625 24:-1 25:-1 26:-0.2 27:-1 28:-1 29:-1 30:0.545022 31:-1 32:-1 33:-1 34:-1 36:-1 37:-0.100007 38:-1 39:0.179997 40:-1 41:-1 42:-1 43:-1 44:-0.5 45:-1 46:-1 47:-1 48:-1 49:-1 50:-1 51:-0.8 52:0.106244 53:-1 54:-1 55:-1 56:-1 57:-1 58:-1 59:-1 60:-1 61:-1 62:-1 63:-1 64:-0.665001 65:-1 66:-1 67:-1 68:-1 69:-1 70:-1 71:-1 72:-0.249992 73:-1 74:-1 75:-1 76:-1 77:-1 78:-1 79:-1 80:-1 81:-1 82:-0.318745 83:-1 84:-1 85:-1 86:-1 87:-0.75 88:-1 89:-1 90:-1 91:-1 92:-1 93:0.208313 94:-1 95:-1 96:-1 97:-1 98:-1 99:-1 100:-1 101:-1 102:-1 103:-1 104:-1 105:-0.8 106:-0.0916688 107:-1 108:-1 109:-1 110:-1 111:-1 112:-1 113:-1 114:-1 115:-1 116:-1 117:-1 118:-1 119:-1 120:0.429143 121:-1 122:-1 123:-1 124:-1 125:-1 126:-1 127:-1 128:0.724971 129:-1 130:-1 131:-1 132:-1 133:-1 134:-1 135:-1 136:-1 137:0.374986 138:-1 139:-0.825 140:-1 141:-1 142:-1 143:-0.6 144:-1 145:-0.825 146:-1 147:-1 148:-1 149:-1 150:-0.174999 151:-1 152:-1 153:-1 154:-0.5 155:-1 156:-1 157:-1 158:-0.375 159:-1 160:-1 161:-1 162:-1 163:-1 164:-1 165:-1 166:-1 167:-1 168:-1 169:-1 170:-1 171:-1 172:-1 173:-0.375 174:-1 175:-1 176:-1 177:-1 178:-1 179:-1 180:-1 181:-1 182:-1 183:-1 184:-1 185:-1 186:-1 187:-1 188:-1 189:-0.100007 190:-1 191:-1 192:-1 193:-1 194:-1 195:0.374986 196:-1 197:-1 198:-1 199:-0.637503 200:-1 201:-1 202:-1 203:-0.433338 204:-1 205:-1 206:-1 207:-1 208:-1 209:-1 210:-1 211:-1 212:-1 213:-1 214:-1 215:-1 216:-0.5375 217:-1 218:-0.249992 219:-1 220:-0.0749991 221:-1 222:-1 223:-1 224:-1 225:-0.4 226:-1 227:-1 228:-1 229:-1 230:-1 231:-1 232:-1 233:-1 234:-1 235:-1 236:-0.275005 237:-1 238:-1 239:-1 240:-1 241:-1 242:-1 243:-1 244:-1 245:-1 246:-1 247:-1 248:1 249:-1 250:-1 251:-1 252:-1 253:-1 254:0.519988 255:1 256:-1 257:-0.636844 258:0.0874924 259:-1 260:-1 261:-1 262:0.749965 263:-0.275005 264:-1 265:-0.825 266:-1 267:-1 268:-1 269:-1 270:-1 271:-1 272:-1 273:-1 274:-1 275:-1 276:-1 277:-1 278:-1 279:-1 280:-0.725 281:-1 282:-1 283:0.25 284:-1 285:-0.5 286:0.500015 287:-1 288:-1 289:-0.024999 290:-1 291:-1 292:-1 293:-1 294:-1 295:-1 296:-1 297:-1 298:-1 299:0.125011 300:0.495036 301:-1 302:-1 303:-1 304:-1 305:-1 306:-0.150007 307:-1 308:-1 309:-1 310:-1 311:0.25 312:-1 313:-1 314:-0.206248 315:-1 316:0.612487 317:-1 318:-0.0166578 319:-1 320:-1 321:-1 322:-1 323:-1 324:-1 325:-1 326:-1 327:-1 328:-1 329:-1 330:-1 331:-1 332:-1 333:-1 334:-1 335:-1 336:-1 337:-1 
1.053681073352796 0.8077757518547284 0.8965238208646964 1.350172449931808 0:-1 1:-1 2:-1 3:-0.599977 4:-1 5:-0.655175 6:-0.200012 7:-1 8:-1 9:-1 10:-1 11:-1 12:-0.373 13:-1 14:-0.779312 15:-1 16:0.206895 17:-1 18:-1 19:-1 20:-1 21:-1 22:-1 23:-1 24:-1 25:-1 26:-0.779296 27:-0.137875 28:-1 29:-1 30:-1 31:-0.19993 32:-1 33:-1 34:-0.365472 35:-0.44824 36:-1 37:-1 38:-1 39:-1 40:-1 41:-1 42:-1 43:-1 44:-1 45:-0.586176 46:-1 47:-1 48:-1 49:-1 50:-0.72412 51:-1 52:-1 53:-0.744811 54:-1 55:-1 56:-1 57:-1 58:-1 59:-1 60:-0.65515 61:-1 62:-1 63:-1 64:-0.815161 65:-0.827588 66:-1 67:-1 68:-1 69:-1 70:-1 71:-0.469462 72:-1 73:-1 74:-1 75:-1 76:0.765504 77:-0.544798 78:-1 79:1 80:-0.19993 81:-1 82:-1 83:-1 84:-1 85:-0.416053 86:0.517215 87:-1 88:-1 89:-1 90:-1 91:-1 92:-1 93:1 94:-1 95:-1 96:-1 97:-0.186147 98:-1 99:-1 100:-1 101:-1 102:-1 103:-1 104:-1 105:-1 106:-0.498819 107:-1 108:-1 109:-1 110:-1 111:-1 112:-0.65515 113:-1 114:-1 115:-1 116:-1 117:-1 118:-0.196482 119:-1 120:-1 121:-1 122:-1 123:-0.44828 124:-1 125:-1 126:-1 127:-0.234469 128:-1 129:-1 130:-0.241338 131:-0.65515 132:-1 133:-1 134:-1 135:-1 136:-1 137:0.137939 138:0.282783 139:-0.903442 140:-1 141:-1 142:-0.558592 143:-1 144:-1 145:-1 146:-1 147:-1 148:-1 149:-1 150:-1 151:-1 152:-1 153:-0.737916 154:-1 155:-1 156:-1 157:-1 158:-1 159:-0.67584 160:-1 161:-1 162:-1 163:-1 164:-1 165:1 166:-1 167:-1 168:-1 169:-1 170:0.365508 171:-1 172:-0.50342 173:-1 174:-1 175:-0.582733 176:-1 177:-0.235196 178:-1 179:-1 180:-0.489621 181:-1 182:0.149444 183:-1 184:-1 185:0.634435 186:-0.783895 187:-1 188:-1 189:-1 190:-0.599977 191:-1 192:-1 193:-1 194:-0.558592 195:-1 196:-1 197:-0.303454 198:-1 199:-1 200:-1 201:-1 202:-0.655175 203:-1 204:-0.31035 205:-0.379264 206:-0.696535 207:-1 208:-1 209:-1 210:-1 211:-0.243349 212:-0.227586 213:-1 214:-1 215:-1 216:-1 217:-1 218:0.655177 219:-1 220:-1 221:-1 222:-0.624828 223:-1 224:-0.241338 225:-0.889648 226:-0.393114 227:-1 228:-0.572385 229:0.10344 230:-1 231:-1 232:-1 233:-1 234:-0.65515 235:-0.586212 236:-0.599977 237:-1 238:-1 239:-1 240:-0.696535 241:-1 242:-0.599977 243:-1 244:-1 245:-0.903442 246:-1 247:-0.75171 248:-1 249:-1 250:-0.351694 251:-0.233667 252:-1 253:-1 254:-1 255:-0.44824 256:-1 257:-1 258:-0.799988 259:-1 260:-1 261:-1 262:-1 263:-0.200012 264:-1 265:-1 266:-1 267:-1 268:-1 269:-1 270:-0.317196 271:-0.537905 272:-1 273:-1 274:-0.86206 275:-1 276:-0.808417 277:-1 278:-1 279:-1 280:-0.848266 281:-1 282:-1 283:-1 284:-1 285:-0.72412 286:-1 287:-1 288:-1 289:0.0758551 290:-0.744811 291:-1 292:-1 293:-1 294:-1 295:-0.67584 296:-1 297:-1 298:-1 299:-1 300:-0.175099 301:-1 302:-1 303:-1 304:-1 305:-0.485062 306:-1 307:-1 308:-1 309:-0.0699572 310:-0.898844 311:-0.31035 312:0.577042 313:-1 314:-1 315:-1 316:-0.110294 317:-0.489621 318:-1 319:-1 320:-0.0620155 321:-1 322:-1 323:-0.56204 324:-1 325:-1 326:-0.25341 327:-1 328:-1 329:-1 330:-0.889648 331:-1 332:-0.731017 333:-1 334:-1 335:-1 336:-1 337:-1 
1.411657227752731 0.9740825620090666 0.9231026098733927 1.714726025125763 0:-0.476185 1:-0.428571 2:-1 3:-0.723806 4:-0.80952 5:-0.64285 6:-1 7:-1 8:-1 9:-1 10:-1 11:-1 12:-1 13:-1 14:-1 15:-1 16:-0.166645 17:-1 18:-1 19:-0.644434 20:0.0571651 21:-1 22:-1 23:-0.801583 24:-0.896188 25:-1 26:-1 27:-0.40475 28:-1 29:-1 30:0.765775 31:-1 32:0.685813 33:-1 34:-1 35:-1 36:0.109549 37:-0.314277 38:-1 39:-0.775234 40:-0.449193 41:-1 42:-1 43:-1 44:-0.42856 45:-1 46:-1 47:-1 48:-1 49:-1 50:-1 51:-0.923808 52:-1 53:-0.823806 54:-1 55:-0.847616 56:-1 57:-1 58:-1 59:-1 60:-1 61:-1 62:-0.038077 63:-1 64:-1 65:-1 66:-1 67:-1 68:-1 69:-0.657139 70:-1 71:-0.633692 72:-1 73:-0.550458 74:0.142857 75:-0.790474 76:-1 77:-0.685708 78:-0.740469 79:-0.309505 80:-1 81:-1 82:-0.740469 83:-1 84:-1 85:-0.596817 86:-0.476185 87:-0.90476 88:-0.7619 89:-1 90:-0.23808 91:-1 92:-0.80952 93:-1 94:-1 95:-1 96:-0.814282 97:-1 98:-1 99:-1 100:-1 101:-0.390464 102:-1 103:-1 104:-1 105:-0.771424 106:0.730189 107:-1 108:-1 109:-0.567955 110:-1 111:-1 112:-1 113:-1 114:-0.857141 115:-1 116:-0.517455 117:-1 118:-1 119:-1 120:-0.455554 121:-1 122:-1 123:-1 124:-1 125:-0.333333 126:-0.276182 127:-0.647612 128:-0.671428 129:-1 130:-1 131:-0.7619 132:-1 133:-0.5238 134:-1 135:-1 136:-0.5238 137:-1 138:-1 139:-0.866664 140:-1 141:-1 142:-0.695232 143:-0.695232 144:-1 145:-1 146:-1 147:-1 148:-1 149:-1 150:-0.685708 151:-1 152:-0.80952 153:-1 154:-0.42856 155:-1 156:-1 157:-0.907934 158:-1 159:-1 160:-0.123787 161:-1 162:-1 163:-0.371415 164:-1 165:-0.654752 166:-1 167:-1 168:-1 169:-1 170:-1 171:-1 172:-1 173:-1 174:-1 175:-1 176:-0.80952 177:0.05611 178:-1 179:-1 180:-1 181:-1 182:0.0582222 183:-0.422228 184:-0.933332 185:-1 186:-0.850791 187:-1 188:-1 189:-0.657139 190:-0.723806 191:-1 192:-1 193:-1 194:-1 195:-1 196:-1 197:-0.519038 198:-0.738093 199:-0.861903 200:-1 201:-1 202:-0.88095 203:-1 204:-0.2857 205:-1 206:-1 207:-1 208:-1 209:-0.90476 210:-0.566658 211:-1 212:-0.733326 213:-1 214:-0.90476 215:-1 216:-0.471417 217:0.914372 218:-1 219:-1 220:-1 221:-0.447596 222:-0.870473 223:-1 224:-1 225:-0.923808 226:-1 227:-1 228:-1 229:-0.23808 230:-1 231:1 232:-0.206333 233:-1 234:-0.2857 235:-1 236:-0.447612 237:-1 238:-1 239:-1 240:-0.790474 241:-1 242:-1 243:0.465231 244:-1 245:-0.933332 246:-1 247:-1 248:-0.61904 249:-1 250:-1 251:-1 252:-1 253:-1 254:0.447636 255:-1 256:-0.714277 257:-1 258:-1 259:1 260:-1 261:-0.80952 262:-0.333333 263:-0.723806 264:-1 265:-0.866664 266:-1 267:-0.940475 268:-1 269:-1 270:-1 271:-1 272:-1 273:-1 274:-1 275:-1 276:-1 277:-1 278:-0.5238 279:-1 280:-1 281:-1 282:-1 283:-0.0476 284:-1 285:-1 286:-1 287:-1 288:-0.647612 289:-1 290:-1 291:-1 292:-0.0571231 293:-1 294:0.339333 295:-1 296:-0.477536 297:-1 298:-1 299:-1 300:-0.430451 301:-1 302:-0.447596 303:1 304:-1 305:-0.911109 306:-1 307:-1 308:-0.814282 309:-0.839452 310:-1 311:-0.5238 312:-0.274058 313:-1 314:-1 315:-1 316:0.228586 317:-1 318:-1 319:-0.657139 320:-0.352373 321:-1 322:-0.714277 323:-0.0928372 324:-1 325:-0.471417 326:-1 327:-1 328:-1 329:-0.861903 330:-1 331:-1 332:-0.814282 333:-1 334:-0.923808 335:-1 336:-0.728033 337:-1 
1.02170644658601 0.7444556195473503 0.8571187441793686 1.397200944957202 0:-1 1:-1 2:-1 3:-1 4:-1 5:-0.63235 6:-0.147058 7:-1 8:-1 9:0.17648 10:-1 11:-1 12:0.336909 13:-0.627449 14:0.41176 15:-1 16:-1 17:-1 18:-1 19:-1 20:-1 21:-1 22:-1 23:-1 24:-1 25:-1 26:-1 27:-1 28:-1 29:-1 30:-1 31:-1 32:-1 33:-0.568625 34:-1 35:-1 36:-1 37:0.0588235 38:-1 39:-1 40:-1 41:-1 42:-1 43:-1 44:-1 45:-1 46:-1 47:-1 48:-1 49:-1 50:-1 51:-0.764704 52:-1 53:-1 54:-1 55:-1 56:-1 57:-1 58:-1 59:0.705884 60:-1 61:-1 62:-1 63:-1 64:-1 65:-0.816175 66:-1 67:-1 68:-1 69:-1 70:-1 71:-1 72:-0.117631 73:-1 74:-1 75:-1 76:-1 77:-0.029403 78:-1 79:-1 80:-1 81:-1 82:-1 83:-1 84:-1 85:-1 86:0.617644 87:-1 88:-1 89:0.0588235 90:-1 91:-1 92:-1 93:-1 94:-1 95:-0.41176 96:-1 97:-1 98:-1 99:-1 100:-1 101:-1 102:-1 103:-1 104:-1 105:-1 106:-1 107:-1 108:-1 109:-1 110:-1 111:-0.00979699 112:-1 113:-1 114:-1 115:-1 116:-1 117:-1 118:0.713287 119:-1 120:-1 121:-1 122:-1 123:-1 124:-0.117631 125:-1 126:-1 127:-1 128:-1 129:-1 130:-1 131:-1 132:-1 133:-1 134:-1 135:-1 136:-1 137:-1 138:-1 139:-1 140:-1 141:-1 142:-1 143:-1 144:-1 145:-1 146:-1 147:-1 148:-1 149:-0.794116 150:-1 151:-1 152:-0.70588 153:-0.441176 154:-1 155:-1 156:-1 157:-1 158:-1 159:-1 160:-1 161:-1 162:-1 163:-1 164:-1 165:0.066193 166:-1 167:-1 168:-0.719249 169:-1 170:-1 171:-1 172:-1 173:-1 174:-0.797384 175:-0.110291 176:-1 177:-1 178:-1 179:-1 180:-1 181:-1 182:-1 183:-1 184:-1 185:-1 186:-1 187:-1 188:-1 189:-1 190:-1 191:-1 192:-1 193:-1 194:-1 195:-1 196:-1 197:-0.257348 198:-1 199:-1 200:-1 201:-1 202:-1 203:1 204:-0.2647 205:-1 206:-1 207:-1 208:-1 209:-1 210:-1 211:-1 212:-1 213:-1 214:-0.70588 215:-1 216:-1 217:-1 218:-1 219:-1 220:0.0882451 221:-1 222:1 223:-1 224:-1 225:-0.764704 226:-1 227:-1 228:-0.0882262 229:-1 230:-1 231:-1 232:-1 233:-1 234:-1 235:-1 236:-1 237:-1 238:-1 239:-1 240:-1 241:-1 242:0.705884 243:-1 244:-0.533609 245:-1 246:-1 247:-1 248:-0.41176 249:-1 250:-1 251:-1 252:-1 253:-1 254:-1 255:-1 256:-1 257:-1 258:-1 259:-1 260:-1 261:-1 262:-1 263:-1 264:-1 265:-1 266:-1 267:-1 268:-0.308815 269:-1 270:-1 271:-1 272:-1 273:-0.63235 274:-0.70588 275:-1 276:-0.5915 277:-1 278:-1 279:-0.0784271 280:-1 281:0.0146968 282:-1 283:-1 284:-1 285:-1 286:-1 287:-1 288:-1 289:-1 290:-1 291:-1 292:-1 293:-1 294:-1 295:-1 296:-0.193263 297:-1 298:0.0588235 299:-1 300:-1 301:-1 302:-1 303:-1 304:-1 305:-1 306:-1 307:-1 308:-0.426465 309:-1 310:-1 311:-1 312:-1 313:-1 314:-1 315:-1 316:-1 317:-1 318:-1 319:-1 320:1 321:-1 322:-1 323:-1 324:-1 325:-1 326:-1 327:-1 328:-1 329:-1 330:-0.764704 331:-1 332:-0.426465 333:-1 334:-1 335:-1 336:-1 337:-1 
1.090127154750189 0.839960951539358 1.129448870770485 1.523355663355465 0:-1 1:-1 2:-1 3:-1 4:-1 5:-1 6:-1 7:-1 8:1 9:-1 10:-1 11:-1 12:-1 13:-1 14:-1 15:-1 16:-1 17:-1 18:-1 19:-1 20:-1 21:1 22:-1 23:-1 24:-1 25:-1 26:1 27:-1 28:-1 29:-1 30:-1 31:-1 32:-1 33:-1 34:-1 35:-1 36:-1 37:-1 38:-1 39:-1 40:-1 41:-1 42:-1 43:1 44:-1 45:-1 46:-1 47:-1 48:-1 49:-1 50:-1 51:-1 52:-1 53:-1 54:-1 55:-1 56:-1 57:-1 58:-1 59:-1 60:-1 61:-1 62:-1 63:-1 64:-1 65:-1 66:-1 67:-1 68:-1 69:-1 70:-1 71:-1 72:-1 73:-1 74:-1 75:-1 76:-1 77:-1 78:-1 79:-1 80:-1 81:-1 82:-1 83:-1 84:1 85:-1 86:-1 87:-1 88:-1 89:-1 90:1 91:-1 92:-1 93:-1 94:-1 95:-1 96:-1 97:-1 98:-1 99:-1 100:1 101:-1 102:-1 103:-1 104:-1 105:-1 106:-1 107:-1 108:-1 109:-1 110:-1 111:-1 112:-1 113:-1 114:-1 115:-1 116:-1 117:-1 118:-1 119:-1 120:-1 121:-1 122:-1 123:-1 124:-1 125:-1 126:-1 127:-1 128:-1 129:-1 130:-1 131:-1 132:-1 133:-1 134:-1 135:-1 136:-1 137:-1 138:-1 139:-1 140:-1 141:-1 142:-1 143:1 144:-1 145:-1 146:-1 147:-1 148:-1 149:-0.124999 150:-1 151:-1 152:-1 153:-1 154:-1 155:-1 156:-1 157:-1 158:-1 159:-1 160:-1 161:-1 162:-1 163:-1 164:-1 165:-1 166:-1 167:0.26389 168:-1 169:-1 170:-1 171:-1 172:-1 173:-1 174:-1 175:-1 176:-1 177:-1 178:-1 179:-1 180:-1 181:-1 182:-1 183:-1 184:-1 185:-1 186:-1 187:-1 188:-1 189:-1 190:-1 191:-1 192:1 193:-1 194:-1 195:-1 196:-1 197:-1 198:-1 199:-1 200:-1 201:-1 202:-1 203:-1 204:-1 205:-1 206:-1 207:-1 208:-1 209:-1 210:-1 211:-1 212:-1 213:-1 214:0.25 215:-1 216:-1 217:-1 218:-1 219:-1 220:-1 221:-1 222:-1 223:-1 224:-1 225:-1 226:-1 227:-1 228:-1 229:-1 230:-1 231:-1 232:-1 233:-1 234:-1 235:-1 236:-1 237:-1 238:-1 239:-1 240:-1 241:-1 242:-1 243:-1 244:-1 245:-1 246:-1 247:-1 248:-1 249:-1 250:-1 251:-1 252:-1 253:-1 254:-1 255:-1 256:-1 257:-1 258:-1 259:-1 260:-1 261:-1 262:-1 263:-1 264:-1 265:-1 266:-1 267:-1 268:-1 269:-1 270:-1 271:-1 272:-1 273:-1 274:-1 275:-1 276:-1 277:-1 278:-1 279:-1 280:-1 281:-1 282:-1 283:-1 284:-1 285:-1 286:-1 287:0.238642 288:-1 289:-1 290:-1 291:-1 292:-1 293:-1 294:-1 295:-1 296:-1 297:-1 298:-1 299:-1 300:-1 301:-1 302:-1 303:-1 304:-1 305:-1 306:-1 307:-1 308:-1 309:-1 310:-1 311:-1 312:-1 313:-1 314:-1 315:-1 316:-1 317:-1 318:-1 319:-1 320:-1 321:-1 322:-1 323:-1 324:-1 325:-1 326:-1 327:-1 328:-1 329:-1 330:1 331:-1 332:-1 333:-1 334:-1 335:-1 336:-1 337:-1 
3.419084172156271 1.920823951180633 3.475017974404853 2.138524853504742 0:-0.120009 1:-0.0400192 2:-0.2 3:-1 4:-1 5:-0.8 6:-1 7:-0.76 8:-0.936 9:-0.52 10:-0.714286 11:-0.866001 12:-0.636364 13:-0.924 14:-1 15:-0.928001 16:-0.824999 17:-0.384615 18:-0.593599 19:-1 20:-1 21:-0.616 22:-0.886 23:-0.583333 24:-1 25:-0.879999 26:-0.936 27:-0.75 28:-0.568003 29:-0.863 30:-1 31:-0.303985 32:-0.645986 33:-0.912 34:-0.631998 35:-0.84 36:-0.689332 37:-1 38:-0.909999 39:-1 40:-0.537332 41:-1 42:-0.879999 43:-1 44:-0.76 45:-1 46:-0.712002 47:-0.752 48:-0.688 49:-0.962 50:-0.84 51:-1 52:-0.823001 53:-0.926 54:-0.775998 55:-0.984 56:-0.639996 57:-0.909 58:-0.924001 59:-0.942 60:-1 61:-0.472005 62:-0.596 63:-0.575206 64:-0.8392 65:-1 66:-1 67:-0.944 68:-0.856001 69:-0.568003 70:-0.884001 71:-0.846154 72:-0.879999 73:-0.811196 74:-0.760005 75:-1 76:-1 77:-1 78:-0.781999 79:-0.709998 80:-1 81:-1 82:-0.454996 83:-0.92 84:-0.936 85:-0.153332 86:-0.560004 87:-0.96 88:-1 89:-0.280006 90:-0.808 91:-1 92:-0.92 93:-0.42001 94:-0.730667 95:-1 96:-0.922 97:-1 98:-0.890001 99:-1 100:-0.936 101:-0.744 102:-0.864533 103:0.815912 104:-0.744 105:-1 106:-0.709334 107:-0.639996 108:-0.844 109:-1 110:-1 111:-0.865333 112:-0.7 113:-0.622 114:-0.94 115:-0.84 116:-0.797335 117:-1 118:-0.766995 119:-0.732002 120:0.143314 121:-1 122:-0.807999 123:-0.76 124:-1 125:-0.160017 126:-0.696002 127:-1 128:-0.862002 129:-1 130:-0.780002 131:-1 132:-0.852 133:-0.8 134:-1 135:-0.879999 136:-0.4 137:-1 138:-1 139:-0.916 140:-0.279993 141:-0.611198 142:-1 143:-0.68 144:-0.96 145:-0.972 146:-0.68 147:-1 148:-1 149:-1 150:-0.736 151:-1 152:-0.92 153:-1 154:-0.76 155:-0.824002 156:-0.616 157:-0.961333 158:-1 159:-0.717999 160:0.104007 161:-1 162:-1 163:-0.736 164:-0.819998 165:-0.854999 166:-0.763998 167:-0.959556 168:-0.885455 169:-0.6 170:-0.802 171:-1 172:-0.856001 173:-1 174:-0.972444 175:-1 176:-0.76 177:-0.112885 178:-0.890001 179:-1 180:-0.407999 181:-0.760005 182:-0.888889 183:-0.75734 184:-0.888 185:-1 186:-0.874667 187:-1 188:-1 189:-0.928001 190:-0.884001 191:-1 192:-0.936 193:-1 194:-0.872 195:-0.450005 196:-0.96 197:-1 198:-0.890001 199:-0.710002 200:-0.729997 201:-1 202:-0.95 203:-0.909334 204:-1 205:-0.639996 206:-0.912001 207:-1 208:-0.5 209:-0.88 210:-0.818 211:-1 212:-1 213:-0.738403 214:-0.96 215:-0.908364 216:-0.926 217:-1 218:-0.879999 219:-1 220:-0.852 221:-0.53599 222:-0.9456 223:0.0800108 224:-0.780002 225:-0.904 226:-0.912001 227:-0.532 228:-1 229:-0.84 230:-0.2 231:-0.580008 232:-1 233:-1 234:-0.9 235:-0.820001 236:-0.884001 237:-1 238:-0.696002 239:-0.099991 240:-0.824002 241:-0.759998 242:-0.188006 243:-0.846154 244:-0.746285 245:-0.944 246:-0.780002 247:-0.928001 248:-1 249:-0.760005 250:-1 251:-1 252:-0.68 253:-0.830666 254:-0.635203 255:-1 256:-0.879999 257:-1 258:-1 259:-0.440011 260:-0.765327 261:-1 262:-0.440011 263:-0.768002 264:-0.768002 265:-0.944 266:-0.136007 267:-0.975 268:-0.811999 269:-0.924001 270:-1 271:-0.732002 272:-1 273:-0.95 274:-1 275:-1 276:-1 277:-1 278:-0.6 279:-0.937334 280:-1 281:-0.862002 282:0.12 283:-0.6 284:-0.952 285:-0.92 286:-1 287:-1 288:-1 289:-0.844 290:-0.63 291:-0.72 292:-1 293:-1 294:-0.812497 295:-0.906 296:-1 297:-1 298:-1 299:-1 300:-0.760794 301:-1 302:0.392031 303:-0.720006 304:-1 305:-1 306:-1 307:-0.852 308:-1 309:-0.865143 310:-0.912 311:-1 312:-1 313:-0.759998 314:-0.618999 315:-0.712002 316:-0.484004 317:-1 318:-0.606663 319:-0.856001 320:-1 321:-0.938 322:-0.759998 323:-1 324:-1 325:-0.333999 326:-1 327:-0.685337 328:-1 329:-0.536003 330:-0.968 331:-1 332:-1 333:-0.844 334:-1 335:-0.954545 336:-0.657329 337:-1 
1.330468900572958 1.63696550561889 1.517158016367964 1.359433585677704 0:-0.780002 1:-1 2:-1 3:-0.884001 4:-1 5:-0.85 6:-0.536003 7:-0.92 8:-0.744 9:-1 10:-0.857143 11:-0.732002 12:-0.636364 13:-0.670667 14:-0.872 15:-0.856001 16:-1 17:-0.846154 18:-0.593599 19:-0.925333 20:-1 21:-0.808 22:-0.924 23:-1 24:-0.8256 25:-0.759998 26:-0.936 27:-0.25 28:-1 29:-0.588999 30:-0.505593 31:-1 32:0.0620409 33:-0.794667 34:-0.631998 35:-0.84 36:-0.0679974 37:-1 38:-0.639996 39:-0.811201 40:-0.768666 41:-1 42:-0.639996 43:-0.904 44:-1 45:-0.879999 46:-0.712002 47:-0.255999 48:-0.844 49:-0.886 50:-1 51:-0.776 52:-1 53:-0.926 54:-0.775998 55:-0.984 56:-1 57:-0.818 58:-0.924001 59:-0.710002 60:-1 61:-0.824002 62:-1 63:-0.433608 64:-0.8392 65:-0.6 66:-0.872 67:-0.944 68:-0.568003 69:-0.424005 70:-1 71:-0.846154 72:-1 73:-1 74:-1 75:-0.824002 76:-0.744 77:-0.736 78:-0.781999 79:-1 80:-1 81:-1 82:-1 83:-1 84:-1 85:-0.322665 86:-1 87:-0.96 88:-1 89:-1 90:-1 91:-1 92:-1 93:-1 94:-1 95:-1 96:-1 97:-0.763998 98:-1 99:-1 100:-0.936 101:-0.744 102:-0.864533 103:-1 104:-1 105:-0.968 106:-0.709334 107:0.260013 108:-0.844 109:-1 110:-0.758001 111:-0.730667 112:-1 113:-0.432999 114:-1 115:-0.84 116:-1 117:-0.731993 118:-0.766995 119:-1 120:-1 121:-1 122:-0.952 123:-1 124:-0.519995 125:-0.720006 126:-1 127:-1 128:-0.586007 129:-0.819998 130:-1 131:-1 132:-0.852 133:-0.933333 134:-1 135:-0.879999 136:-1 137:-0.780002 138:-0.627999 139:-1 140:-0.639996 141:-0.611198 142:-0.488 143:-1 144:-1 145:-1 146:-1 147:-1 148:-1 149:-0.972 150:-0.868 151:-0.6 152:-1 153:-0.772002 154:-0.92 155:-0.824002 156:-0.872 157:-0.961333 158:-1 159:-1 160:-1 161:-1 162:-0.84 163:-1 164:-0.459995 165:-0.854999 166:-0.763998 167:-1 168:-0.847273 169:-1 170:-0.405999 171:-1 172:-1 173:-1 174:-0.889778 175:-0.879001 176:-1 177:-1 178:-1 179:-1 180:-0.704 181:-0.52001 182:-0.888889 183:-1 184:-1 185:-0.763005 186:-0.749334 187:-0.947131 188:-1 189:-1 190:-0.884001 191:-0.92 192:-1 193:-0.668004 194:-0.36 195:-1 196:-1 197:-0.798 198:-0.670003 199:-0.942 200:-1 201:-0.917333 202:-0.85 203:-1 204:-1 205:-1 206:-0.736003 207:-0.782004 208:-1 209:-0.96 210:-0.818 211:-1 212:-0.551996 213:-0.476805 214:-0.84 215:-1 216:-0.63 217:-0.731993 218:-0.639996 219:-0.744 220:-1 221:-0.767995 222:-0.9456 223:-1 224:-1 225:-1 226:-0.912001 227:-0.844 228:-0.752 229:-1 230:-1 231:-1 232:-1 233:-0.652002 234:-1 235:-0.880001 236:-0.768002 237:-1 238:-0.696002 239:-0.639996 240:-0.912001 241:-1 242:-0.652002 243:-1 244:-0.936571 245:-0.972 246:-1 247:-1 248:-1 249:-0.0400192 250:-0.248014 251:-1 252:-1 253:-1 254:-0.878401 255:-1 256:-0.879999 257:-0.941895 258:-0.884001 259:-1 260:-1 261:-1 262:-1 263:-1 264:-0.536003 265:-1 266:-1 267:-0.825 268:-0.623998 269:-0.620003 270:-0.802 271:-0.866001 272:-1 273:-0.85 274:-0.68 275:-1 276:-0.833333 277:-0.833997 278:-1 279:-0.561335 280:-0.736 281:-0.448009 282:-0.84 283:-1 284:-1 285:-0.92 286:-0.879999 287:-0.960363 288:-1 289:-1 290:-0.481999 291:-0.96 292:-1 293:-1 294:-1 295:-0.811999 296:-0.670854 297:-1 298:-0.856001 299:-1 300:-1 301:-0.826001 302:-1 303:-1 304:-0.714286 305:-1 306:-1 307:-1 308:-0.844 309:-1 310:-0.736001 311:-1 312:-1 313:-0.879999 314:-0.873 315:-0.856001 316:-1 317:-1 318:-1 319:-0.856001 320:-1 321:-0.565999 322:-0.879999 323:-0.618999 324:-0.846154 325:-1 326:-0.350509 327:-1 328:-1 329:-1 330:-0.872 331:-1 332:-1 333:-1 334:-1 335:-0.636364 336:-0.0862103 337:-0.759998 
0.2498641568777407 0 0.6729175198183762 0.3863553456514832 0:-0.780002 1:-1 2:-1 3:-0.768002 4:-1 5:-0.8 6:-1 7:-1 8:-0.936 9:-0.84 10:-1 11:-0.598003 12:-1 13:-0.670667 14:-0.808 15:-1 16:-1 17:-1 18:-0.593599 19:-0.925333 20:-0.852 21:-0.808 22:-0.734 23:-1 24:-0.520399 25:-0.759998 26:-1 27:0.5 28:-1 29:-1 30:-0.752796 31:-1 32:0.416055 33:-0.912 34:-0.815999 35:-1 36:-1 37:-0.856001 38:-1 39:-0.244802 40:-0.768666 41:-1 42:-0.639996 43:-1 44:-0.84 45:-0.639996 46:-1 47:-0.503999 48:-1 49:-0.924 50:-1 51:-0.84 52:-0.823001 53:-1 54:-0.775998 55:-0.984 56:-1 57:-0.909 58:-0.924001 59:-0.652002 60:-0.9 61:-0.296007 62:-1 63:-0.716804 64:-0.410401 65:-0.8 66:-0.872 67:-0.944 68:-0.856001 69:-0.856001 70:-1 71:-0.846154 72:-1 73:-0.811196 74:-1 75:-1 76:0.28 77:-0.471999 78:-0.890999 79:-1 80:-1 81:-1 82:-1 83:-0.96 84:-1 85:-1 86:-0.780002 87:-1 88:-1 89:-1 90:-1 91:-1 92:-1 93:-0.61334 94:-1 95:-1 96:-1 97:-1 98:-1 99:-1 100:-1 101:-0.914667 102:-1 103:-1 104:-0.744 105:-1 106:-0.418668 107:-0.819998 108:-0.844 109:-0.818545 110:-1 111:-0.596 112:-1 113:-1 114:-0.94 115:-0.92 116:-1 117:-1 118:-1 119:-1 120:-1 121:-1 122:-1 123:-1 124:-0.279993 125:-0.720006 126:-1 127:-1 128:-0.586007 129:-1 130:-0.780002 131:-1 132:-0.407999 133:-1 134:-1 135:-1 136:-0.8 137:-0.890001 138:-0.131998 139:-1 140:-0.819998 141:-0.222395 142:0.024 143:-1 144:-1 145:-1 146:-1 147:-1 148:-1 149:-0.916 150:-0.736 151:-0.9 152:-1 153:-0.772002 154:-0.92 155:-0.736003 156:-1 157:-0.961333 158:-0.6 159:-0.811999 160:-1 161:-1 162:-1 163:-1 164:-0.639996 165:-0.419996 166:-1 167:-0.959556 168:-0.961818 169:-1 170:0.386001 171:-1 172:-1 173:-0.9 174:-0.931111 175:-0.637002 176:-1 177:-1 178:-0.670003 179:-0.777778 180:-0.704 181:-0.760005 182:-0.666667 183:-1 184:-1 185:-1 186:-0.624001 187:-0.973565 188:-1 189:-1 190:-0.884001 191:-0.92 192:-1 193:-0.778669 194:-0.36 195:-0.780002 196:-0.96 197:-0.697 198:-1 199:-0.942 200:-1 201:-0.917333 202:-0.8 203:-0.909334 204:-1 205:-1 206:-0.912001 207:-1 208:-0.5 209:-1 210:-0.818 211:-0.890285 212:-0.775998 213:-0.564004 214:-0.76 215:-1 216:-1 217:-1 218:-0.879999 219:-1 220:-0.556 221:-0.303985 222:-0.9456 223:-1 224:-1 225:-0.968 226:-0.560004 227:-1 228:-0.752 229:-1 230:0.2 231:-1 232:-1 233:-1 234:-1 235:-0.760001 236:-1 237:-0.772 238:-0.696002 239:-0.639996 240:-0.384006 241:-0.759998 242:-0.768002 243:-1 244:-0.556 245:-1 246:-0.890001 247:-1 248:-0.92 249:-0.280014 250:-0.624007 251:-1 252:-1 253:-0.830666 254:-0.878401 255:-1 256:-0.879999 257:-0.88379 258:-0.710002 259:-1 260:-0.530654 261:-0.92 262:-0.720006 263:-1 264:-0.0720065 265:-1 266:-1 267:-0.775 268:-0.341997 269:-0.696002 270:-1 271:-1 272:-0.899429 273:-0.85 274:-0.96 275:-1 276:-1 277:-1 278:-1 279:-0.686668 280:-0.78 281:-1 282:-1 283:-1 284:-1 285:-0.92 286:-1 287:-0.920727 288:-1 289:-1 290:-0.852 291:-0.88 292:-1 293:-1 294:-1 295:-0.435997 296:-0.780569 297:-1 298:-1 299:-1 300:-1 301:-0.884001 302:-1 303:-1 304:-1 305:-0.925333 306:-1 307:-1 308:-0.922 309:-0.865143 310:-0.824 311:-1 312:-1 313:-1 314:-1 315:-0.856001 316:-0.742002 317:-0.556 318:-1 319:-1 320:-0.184007 321:-0.938 322:-0.879999 323:-0.745999 324:-0.884615 325:-1 326:-0.567006 327:-1 328:-0.96 329:-1 330:-0.872 331:-1 332:-1 333:-0.844 334:-0.936 335:-0.727273 336:-0.428881 337:-0.879999 
0.2373084693943659 0.2067816364866324 1.325729609252996 1.058378902813518 0:-1 1:-0.760005 2:-0.6 3:-0.652002 4:-1 5:-0.9 6:-0.536003 7:-0.92 8:-0.872 9:-0.84 10:-0.857143 11:-0.598003 12:-1 13:-0.974667 14:-0.968 15:-1 16:-0.649998 17:-1 18:-0.187198 19:-1 20:0.036001 21:-0.936 22:-0.962 23:-0.583333 24:-1 25:-1 26:-1 27:-0.75 28:-1 29:-0.863 30:0.730425 31:-0.53599 32:-0.645986 33:-0.970667 34:-1 35:-1 36:-0.844666 37:-0.712002 38:-0.909999 39:-0.811201 40:-0.537332 41:-1 42:-1 43:-0.968 44:-1 45:-0.759998 46:-0.856001 47:-1 48:-1 49:-0.962 50:-0.92 51:-0.968 52:-0.469003 53:-0.926 54:-0.551996 55:-0.744 56:-0.519995 57:-1 58:-0.848001 59:-0.768002 60:-0.4 61:-1 62:0.00999899 63:-0.858402 64:-0.7856 65:-0.95 66:-0.968 67:-0.972 68:-1 69:-0.568003 70:-1 71:-0.538462 72:-0.879999 73:-1 74:-1 75:-1 76:0.024 77:-0.471999 78:-1 79:-0.709998 80:-1 81:-0.8 82:-0.890999 83:-0.76 84:-0.936 85:-0.830666 86:-0.780002 87:-0.96 88:-0.2 89:-0.856001 90:-0.744 91:-0.666667 92:-1 93:-0.61334 94:-0.192001 95:-0.92 96:-0.766 97:-0.763998 98:-0.780002 99:-0.688 100:-0.936 101:-1 102:-1 103:-1 104:-0.616 105:-0.84 106:-0.418668 107:-1 108:-0.688 109:-0.637089 110:-1 111:-1 112:-0.6 113:-0.811 114:-1 115:-0.92 116:-0.59467 117:-1 118:-0.766995 119:-1 120:-0.771337 121:-0.766 122:-0.904 123:-0.36 124:-0.879999 125:-1 126:-1 127:-0.704 128:-1 129:-0.639996 130:-0.340007 131:-0.7 132:-0.852 133:-0.866667 134:-0.872 135:-1 136:-1 137:-1 138:-0.876 139:-1 140:-1 141:-0.611198 142:-1 143:-0.744 144:-1 145:-0.944 146:-1 147:-1 148:-0.2 149:-1 150:-1 151:-0.9 152:-0.96 153:-1 154:-1 155:-0.912001 156:-0.872 157:-1 158:-0.3 159:-0.906 160:-0.815999 161:-1 162:-1 163:-0.868 164:-0.459995 165:-0.274995 166:-0.527996 167:-0.959556 168:-0.961818 169:-1 170:-0.604 171:-0.890001 172:-1 173:-1 174:-0.958667 175:-0.758001 176:-1 177:-1 178:-1 179:-0.111111 180:-0.852 181:-0.52001 183:-0.75734 184:-0.944 185:-1 186:-0.937334 187:-0.986783 188:-0.904 189:-0.856001 190:-0.884001 191:-1 192:-0.872 193:-0.778669 194:-0.872 195:-0.890001 196:-0.96 197:-0.899 198:-0.780002 199:-0.942 200:-0.909999 201:-0.958667 202:-0.95 203:-1 204:-0.6 205:-1 206:-1 207:-0.782004 208:-1 209:-0.92 210:-1 211:-0.780569 212:-1 213:-0.825602 214:-1 215:-0.908364 216:-1 217:-0.731993 218:-0.159992 219:-0.914667 220:-0.407999 221:-0.767995 222:-0.9456 223:-1 224:-1 225:-0.904 226:-1 227:-1 228:-1 229:-1 230:-0.2 231:-1 232:-1 233:-1 234:-0.8 235:-0.820001 236:-0.884001 237:-1 238:-0.696002 239:-0.099991 240:-0.824002 241:-0.639996 242:-0.768002 243:-0.692308 244:-1 245:-0.916 246:-0.780002 247:-0.928001 248:-0.84 249:-1 250:-1 251:-1 252:-1 253:-0.830666 254:-0.878401 255:-1 256:-0.759998 257:-0.76758 258:-0.710002 259:-1 260:-0.530654 261:-0.84 262:-0.440011 263:-1 264:-0.768002 265:-0.972 266:-1 267:-0.975 268:-1 269:-1 270:-1 271:-0.866001 272:-1 273:-1 274:-1 275:-1 276:-1 277:-0.833997 278:-0.6 279:-0.874667 280:-1 281:-0.862002 282:-0.84 283:-0.8 284:-0.855999 285:-0.92 286:-1 287:-0.960363 288:-1 289:-0.844 290:-0.926 291:-1 292:-0.207999 293:-1 294:-1 295:-1 296:-0.780569 297:-1 298:-0.712002 299:-0.819998 300:-0.282382 301:-1 302:-1 303:-0.720006 304:-0.714286 305:-0.477334 306:-1 307:-1 308:-0.61 309:-0.932571 310:-0.970667 311:-1 312:-0.69511 313:-1 314:-1 315:-1 316:-1 317:0.480001 318:-0.763998 319:-0.712002 320:-0.728002 321:-1 322:-1 323:-0.491999 324:-0.961538 325:-1 326:-0.783503 327:-0.685337 328:-1 329:-0.710002 330:-1 331:-1 332:-0.61 333:-0.844 334:-0.968 335:-1 336:-1 337:-0.759998 
0.6696925906007781 0.938383581605073 1.617313681691945 1.083257789269191 0:-1 1:-0.760005 2:-1 3:-0.768002 4:-0.92 5:-0.95 6:-0.768002 7:-1 8:-0.808 9:-1 10:-1 11:-1 12:-1 13:-0.746667 14:-0.936 15:-1 16:-0.824999 17:-0.846154 18:-0.593599 19:-1 20:-1 21:-0.808 22:-0.962 23:-1 24:-0.520399 25:-0.639996 26:-1 27:-0.25 28:-1 29:-0.863 30:-1 31:-0.767995 32:-0.645986 33:-0.941333 34:-0.631998 35:-1 36:-0.844666 37:-0.568003 38:-1 39:-0.811201 40:-1 41:-1 42:-0.879999 43:-0.872 44:-1 45:-0.879999 46:-0.856001 47:-1 48:-0.375999 49:-0.734 50:-1 51:-0.84 52:-1 53:-1 54:-0.551996 55:-1 56:-1 57:-0.545 58:-0.620003 59:-0.884001 60:-0.8 61:-0.648004 62:-1 63:-0.716804 64:-0.8392 65:-0.675 66:-0.936 67:-0.916 68:-1 69:-0.856001 70:-0.652002 71:-1 72:-1 73:-1 74:-1 75:-0.472005 76:-0.232 77:-0.471999 78:-0.781999 79:-1 80:-1 81:-0.4 82:-1 83:-0.96 84:-1 85:-1 86:-0.780002 87:-1 88:-1 89:-1 90:-1 91:-0.833333 92:-1 93:-0.80667 94:-1 95:-1 96:-0.922 97:-1 98:-1 99:-1 100:-1 101:-1 102:-1 103:-1 104:-1 105:-1 106:-0.564001 107:-0.639996 108:-0.844 109:-1 110:-0.758001 111:-0.730667 112:-1 113:-1 114:-1 115:-0.92 116:-1 117:-1 118:-0.300984 119:-1 120:-0.771337 121:-1 122:-1 123:-0.76 124:-0.879999 125:-1 126:-1 127:-1 128:0.241979 129:-1 130:-0.560004 131:-1 132:-1 133:-1 134:-1 135:-0.879999 136:-0.4 137:-1 138:-0.00799802 139:-1 140:-0.639996 141:-1 142:-0.872 143:-1 144:-1 145:-1 146:-1 147:-1 148:-1 149:-0.944 150:-0.604 151:-1 152:-1 153:-0.848001 154:-0.92 155:-0.912001 156:-0.744 157:-0.961333 158:-1 159:-0.811999 160:-0.631998 161:-1 162:-1 163:-0.736 164:-0.819998 165:-0.709998 166:-1 167:-0.959556 168:-0.961818 169:-1 170:0.188001 171:-0.560004 172:-1 173:-1 174:-0.931111 175:-0.758001 176:-0.92 177:-1 178:-0.780002 179:-0.777778 180:-0.704 181:0.439971 182:-1 183:-0.514681 184:-1 185:-0.763005 186:-0.874667 187:-0.973565 188:-1 189:-1 190:-1 191:-0.44 192:-1 193:-0.557338 194:-0.616 195:-1 196:-1 197:-0.697 198:-0.890001 199:-0.884001 200:-1 201:-0.917333 202:-0.55 203:-0.909334 204:-1 205:-1 206:-0.824002 207:-0.564009 208:-0.75 209:-1 210:-0.453999 211:-0.780569 212:-0.103993 213:-0.651203 214:-0.68 215:-1 216:-0.852 217:-1 218:-0.759998 219:-0.829333 220:-1 221:-1 222:-0.727998 223:-0.879999 224:-1 225:-1 226:-0.912001 227:-1 228:-0.752 229:-1 230:-1 231:-1 232:-1 233:-0.0720065 234:-1 235:-0.700001 236:-1 237:-0.848 238:-1 239:-0.279993 240:-0.384006 241:-0.879999 242:-0.768002 243:-1 244:-0.746285 245:-1 246:-0.890001 247:-0.928001 248:-1 249:0.199976 250:-0.436011 251:-1 252:-0.84 253:-1 254:-1 255:-0.84 256:-0.759998 257:-1 258:-0.536003 259:-1 260:-0.530654 261:-0.92 262:-1 263:-1 264:-0.536003 265:-0.944 266:-1 267:-0.825 268:-0.623998 269:-0.544004 270:-0.604 271:-0.866001 272:-0.798859 273:-0.9 274:-0.88 275:-1 276:-1 277:-1 278:-0.6 279:-0.749334 280:-0.736 281:-0.172014 282:-1 283:-1 284:-1 285:-1 286:-1 287:-0.920727 288:-1 289:-1 290:-0.852 291:-0.96 292:-1 293:-0.84 294:-1 295:-0.811999 296:-0.890285 297:-1 298:-1 299:-0.819998 300:-0.282382 301:-1 302:-0.767995 303:-1 304:-1 305:-0.925333 306:-1 307:-1 308:-0.61 309:-0.932571 310:-0.882667 311:-0.9 312:-1 313:-0.879999 314:-1 315:-0.856001 316:-0.742002 317:-1 318:-1 319:-1 320:0.0879913 321:-0.689999 322:-0.639996 323:-0.873 324:-0.923077 325:-1 326:-1 327:-1 328:-0.96 329:-1 330:-0.968 331:-0.879999 332:-1 333:-0.844 334:-1 335:-0.772727 336:-1 337:-0.879999 
0.2161398575118818 0 0.9050153372773763 0.8081043422916357 0:-1 1:-1 2:-1 3:-0.768002 4:-1 5:-0.65 6:-0.884001 7:-1 8:-0.936 9:-1 10:-1 11:-0.866001 12:-1 13:-0.746667 14:-0.808 15:-0.928001 16:-0.649998 17:-1 18:-1 19:-0.775998 20:-0.852 21:-1 22:-0.81 23:-0.833333 24:-1 25:-0.879999 26:-1 28:-1 29:-1 30:-1 31:-1 32:-0.645986 33:-0.677334 34:-1 35:-0.84 36:-0.378665 37:-0.712002 38:-1 39:0.132797 40:-1 41:-1 42:-0.759998 43:-0.968 44:-1 45:-0.879999 46:-1 47:-0.503999 48:-0.844 49:-0.924 50:-1 51:-0.744 52:-0.823001 53:-1 54:-1 55:-0.952 56:-1 57:-0.818 58:-0.924001 59:-0.304005 60:-0.6 61:-0.912001 62:-0.596 63:-0.858402 64:-0.571201 65:-0.65 66:-1 67:-0.972 68:-1 69:-1 70:-1 71:-1 72:-1 73:-1 74:-1 75:-0.736003 76:-1 77:-1 78:-0.890999 79:-1 80:-1 81:-1 82:-1 83:-0.72 84:-1 85:-1 86:-0.340007 87:-1 88:-0.8 89:-0.856001 90:-0.936 91:-1 92:-1 93:-1 94:-1 95:-1 96:-0.922 97:-1 98:-1 99:-1 100:-1 101:-1 102:-0.864533 103:-1 104:-1 105:-0.968 106:-0.854667 107:-1 108:-0.844 109:-1 110:-0.758001 111:-0.865333 112:-1 113:-0.811 114:-1 115:-0.84 116:-1 117:-1 118:-0.766995 119:-0.732002 120:-1 121:-1 122:-1 123:-0.84 124:-0.879999 125:-1 126:-1 127:-1 128:-0.586007 129:-0.819998 130:-1 131:-0.6 132:-0.407999 133:-1 134:-0.872 135:-0.759998 136:-1 137:-1 138:-0.627999 139:-1 140:-1 141:-1 142:-0.872 143:-0.936 144:-1 145:-0.972 146:-1 147:-1 148:-1 149:-0.86 150:-0.868 151:-0.8 152:-1 153:-0.924001 154:-0.84 155:-0.120009 156:-1 157:-1 158:-0.9 159:-0.811999 160:-0.631998 161:-1 162:-0.92 163:-1 164:-1 165:-0.709998 166:-1 167:-1 168:-0.885455 169:-1 170:-0.802 171:-1 172:-1 173:-0.9 174:-0.710667 175:-0.879001 176:-1 177:-1 178:-0.780002 179:-0.777778 180:-0.111999 181:-0.760005 182:-0.777778 183:-0.75734 184:-1 185:-0.763005 186:-1 187:-0.973565 188:-1 189:-1 190:-1 191:-0.84 192:-1 193:-0.446673 194:-0.744 195:-1 196:-1 197:-1 198:-0.890001 199:-0.884001 200:-1 201:-1 202:-0.65 203:-1 204:-0.9 205:-1 206:-0.912001 207:-1 208:-0.75 209:-1 210:-0.453999 211:-0.890285 212:-1 213:-0.651203 214:-0.76 215:-1 216:-0.852 217:-0.731993 218:-0.759998 219:-1 220:-0.852 221:-1 222:-0.9456 223:-1 224:-1 225:-0.968 226:-1 227:-1 228:-0.752 229:-0.84 230:-0.6 231:-1 232:-1 233:-0.884001 234:-1 235:-0.700001 236:-1 237:-0.962 238:-1 239:-0.819998 240:-0.384006 241:-0.879999 242:-0.420004 243:-0.230769 244:-0.492571 245:-1 246:-1 247:-1 248:-1 249:-1 250:-0.812004 251:-1 252:-1 253:-1 254:-1 255:-0.84 256:-0.879999 257:-1 258:-1 259:-1 260:-0.295981 261:-1 262:-1 263:-1 264:-0.884001 265:-1 266:-1 267:-0.85 268:-0.906 269:-0.240006 270:-0.802 271:-1 272:-0.899429 273:-0.75 274:-0.52 275:-0.813333 276:-0.888889 277:-1 278:-1 279:0.0653298 280:-0.868 281:-0.310012 282:-1 283:-1 284:-1 285:-1 286:-1 287:-0.960363 288:-1 289:-1 290:-0.556 291:-0.96 292:-1 293:-0.84 294:-1 295:-0.435997 296:-0.561139 297:-1 298:-1 299:-1 300:-1 301:-0.884001 302:-1 303:-1 304:-1 305:-0.813334 306:-1 307:-1 308:-1 309:-0.865143 310:-0.882667 311:-0.9 312:-0.847555 313:-1 314:-0.873 315:-1 316:-1 317:-0.852 318:-0.685331 319:-1 320:-0.184007 321:-0.938 322:0.0800108 323:0.016002 324:-1 325:-0.778 326:-1 327:-1 328:-1 329:-1 330:-0.968 331:-1 332:-1 333:-1 334:-0.968 335:-0.772727 336:-0.885776 337:-1 
1.021537850331974 0.6256617649677138 0.6308318617001429 0.6299498751348055 0:-1 1:-0.760005 2:-1 3:-0.652002 4:-0.92 5:-0.8 6:-0.420004 7:-1 8:-0.744 9:-1 10:-1 11:-0.732002 12:-1 13:-0.569334 14:-0.872 15:-1 16:-1 17:-0.692308 18:-1 19:-0.925333 20:-0.852 21:-0.936 22:-0.81 23:-0.916667 24:-0.8692 25:-1 26:-1 27:-1 28:-1 29:-1 30:-0.752796 31:-1 32:-1 33:-0.736001 34:-0.815999 35:-0.84 36:-0.533999 37:-1 38:-1 39:-0.811201 40:-1 41:-1 42:-0.759998 43:-0.968 44:-1 45:-0.879999 46:-1 47:-0.752 48:-0.844 49:-0.772 50:-1 51:-0.744 52:-1 53:-1 54:-0.551996 55:-0.984 56:-1 57:-0.636 58:-0.848001 59:-0.710002 60:-1 61:-0.560004 62:-1 63:-0.433608 64:-0.678401 65:-0.65 66:-0.968 67:-1 68:-0.712002 69:-1 70:-1 71:-1 72:-1 73:-1 74:-1 75:-0.912001 76:-0.744 77:-0.339999 78:-1 79:-1 80:-1 81:-0.8 82:-0.890999 83:-1 84:-0.808 85:-1 86:-0.780002 87:-0.92 88:-0.9 89:-1 90:-1 91:-1 92:-0.92 93:-1 94:-1 95:-1 96:-1 97:-1 98:-1 99:-1 100:-1 101:-1 102:-0.932267 103:-1 104:-1 105:-0.968 106:-0.418668 107:-0.279993 108:-1 109:-0.818545 110:-0.758001 111:-0.461334 112:-1 113:-0.243999 114:-1 115:-0.84 116:-1 117:-1 118:-1 119:-1 120:-1 121:-1 122:-1 123:-1 124:-0.759998 125:-0.720006 126:-0.848001 127:-1 128:-0.724005 129:-0.819998 130:-0.560004 131:-1 132:-0.259999 133:-0.933333 134:-1 135:-1 136:-0.8 137:-1 138:-0.503999 139:-1 140:-0.819998 141:-1 142:-0.744 143:-1 144:-1 145:-0.972 146:-1 147:-1 148:-1 149:-0.944 150:-0.604 151:-1 152:-1 153:-0.848001 154:-0.92 155:-0.560004 156:-0.872 157:-0.884 158:-1 159:-0.906 160:-0.631998 161:-1 162:-1 163:-0.868 164:-1 165:-0.709998 166:-0.763998 167:-1 168:-0.885455 169:-1 170:-0.207999 171:-0.780002 172:-0.856001 173:-1 174:-0.807111 175:-0.758001 176:-0.92 177:-0.778221 178:-1 179:-1 180:-1 181:-0.52001 182:-1 183:-0.75734 184:-0.944 185:-0.763005 186:-0.749334 187:-0.973565 188:-1 189:-1 190:-1 191:-0.92 192:-1 193:-0.557338 194:-0.744 195:-0.890001 196:-0.96 197:-1 198:-1 199:-0.768002 200:-1 201:-0.876 202:-0.95 203:-0.818668 204:-1 205:-1 206:-0.648004 207:-1 208:-1 209:-1 210:-0.636 211:-0.890285 212:-1 213:-0.651203 214:-0.92 215:-1 216:-1 217:-1 218:-0.759998 219:-0.914667 220:-1 221:-0.53599 222:-1 223:-0.879999 224:-0.780002 225:-0.936 226:-1 227:-1 228:-0.255999 229:-1 230:-0.2 231:-1 232:-1 233:-0.536003 234:-1 235:-0.880001 236:-0.884001 237:-1 238:-1 239:-0.639996 240:-0.648004 241:-1 242:-0.652002 243:-1 244:-0.682857 245:-1 246:-1 247:-1 248:-1 249:-1 250:-0.624007 251:-1 252:-0.68 253:-1 254:-1 255:-1 256:-0.759998 257:-0.88379 258:-1 259:-1 260:-0.765327 261:-0.92 262:-0.720006 263:-0.884001 264:-0.884001 265:-1 266:-1 267:-0.6 268:-0.247997 269:-0.0880073 270:-1 271:-1 272:-0.798859 273:-0.95 274:-0.64 275:-0.813333 276:-0.944444 277:-0.667995 278:-1 279:-0.498668 280:-0.648 281:-0.172014 282:-1 283:-1 284:-0.952 285:-1 286:-0.879999 287:-0.920727 288:-1 289:-0.844 290:-0.407999 291:-1 292:-0.802 293:-1 294:-1 295:-0.623998 296:-0.561139 297:-0.842668 298:-1 299:-1 300:-1 301:-0.884001 302:-0.767995 303:-1 304:-1 305:-0.962667 306:-1 307:-1 308:-1 309:-1 310:-0.706667 311:-1 312:-1 313:-1 314:-0.873 315:-1 316:-1 317:-1 318:-1 319:-1 320:-0.728002 321:-1 322:-1 323:-0.618999 324:-0.961538 325:-1 326:0.731977 327:-1 328:-0.96 329:-1 330:-0.936 331:-1 332:-1 333:-0.844 334:-1 335:-0.272727 336:-0.543105 337:-1 
1.052995079722743 0.4577970150775419 1.872791745109358 0.4608774647845981 0:-1 1:-1 2:-1 3:-0.768002 4:-0.84 5:-0.85 6:-0.420004 7:-0.92 8:-0.936 9:-1 10:-0.857143 11:-0.598003 12:-1 13:-0.670667 14:-0.904 15:-0.928001 16:-1 17:-0.846154 18:0.016002 19:-0.850665 20:-1 21:-0.936 22:-0.962 23:-1 24:-1 25:-0.879999 26:-1 27:0.75 28:-1 29:-0.863 30:-0.752796 31:-1 32:-1 33:-0.618668 34:-1 35:-1 36:0.0873364 37:-0.856001 38:-0.909999 39:-0.622401 40:-0.768666 41:-1 42:-1 43:-0.872 44:-1 45:-0.879999 46:-1 47:-0.627999 48:-0.844 49:-0.734 50:-1 51:-0.936 52:0.0619939 53:-0.926 54:-0.775998 55:-0.984 56:-1 57:-0.909 58:-0.924001 59:-0.420004 60:-1 61:-0.736003 62:-0.798 63:-0.716804 64:-0.464001 65:-0.825 66:-0.936 67:-1 68:-0.856001 69:-1 70:-0.768002 71:-1 72:-0.879999 73:-1 74:-1 75:-0.824002 76:0.28 77:-0.604 78:-1 79:-1 80:-0.767995 81:-0.4 82:-0.890999 83:-0.92 84:-0.936 85:-1 86:-0.340007 87:-0.88 88:-1 89:-1 90:-1 91:-0.833333 92:-1 93:-1 94:-0.865333 95:-1 96:-1 97:-1 98:-1 99:-1 100:-1 101:-1 102:-0.932267 103:-1 104:-1 105:-1 106:-0.564001 107:-1 108:-0.844 109:-0.818545 110:-0.758001 111:-0.865333 112:-1 113:-0.622 114:-1 115:-0.6 116:-0.696002 117:-0.731993 118:-0.766995 119:-1 120:-1 121:-1 122:-0.952 123:-1 124:-0.879999 125:-1 126:-1 127:-1 128:-1 129:-1 130:-0.120009 131:-0.9 132:-0.852 133:-1 134:-0.872 135:-0.759998 136:-1 137:-0.890001 138:-0.379999 139:-0.944 140:-1 141:-1 142:-0.872 143:-0.936 144:-0.88 145:-0.972 146:-1 147:-1 148:-1 149:-0.888 150:-1 151:-0.7 152:-1 153:-0.772002 154:-0.84 155:-0.560004 156:-0.872 157:-1 158:-1 159:-1 160:-0.631998 161:-0.972 162:-0.84 163:-0.868 164:-0.819998 165:0.0150076 166:-0.763998 167:-1 168:-0.847273 169:-1 170:-0.604 171:-1 172:-0.856001 173:-1 174:-0.779556 175:-0.758001 176:-1 177:-0.778221 178:-1 179:-1 180:-0.852 181:-0.280014 182:-1 183:-1 184:-1 185:-1 186:-1 187:-0.960348 188:-1 189:-1 190:-1 191:-0.92 192:-1 193:-0.557338 194:-0.744 195:-1 196:-1 197:-1 198:-1 199:-1 200:-1 201:-0.876 202:-0.8 203:-1 204:-0.9 205:-1 206:-0.296007 207:-1 208:0.25 209:-0.96 210:-0.818 211:-0.670854 212:-1 213:-0.651203 214:-0.88 215:-0.908364 216:-1 217:-0.731993 218:-0.399994 219:-0.914667 220:-1 221:-1 222:-1 223:-1 224:-1 225:-0.968 226:-0.912001 227:-1 228:-0.876 229:-1 230:-0.2 231:-1 232:-1 233:-1 234:-1 235:-0.460003 236:-1 237:-0.962 238:-0.696002 239:0.260013 240:-0.912001 241:-0.879999 242:-0.652002 243:-1 244:-0.556 245:-1 246:-1 247:-0.928001 248:-1 249:-0.52001 250:-0.812004 251:-1 252:-1 253:-0.661333 254:-0.878401 255:-1 256:-0.759998 257:-0.941895 258:-0.478004 259:-0.720006 260:-0.530654 261:-0.92 262:-1 263:-1 264:-0.768002 265:-0.972 266:-1 267:-0.95 268:-0.717999 269:-0.848001 270:-1 271:-1 272:-0.698288 273:-1 274:-0.6 275:-1 276:-0.888889 277:-1 278:-0.6 279:-0.561335 280:-0.824 281:-0.172014 282:-1 283:-1 284:-0.952 285:-0.84 286:-0.879999 287:-0.960363 288:-1 289:-1 290:-0.852 291:-1 292:-1 293:-0.84 294:-1 295:-0.906 296:-0.670854 297:-1 298:-0.856001 299:-1 300:-0.760794 301:-1 302:-1 303:-0.720006 304:-0.714286 305:-0.925333 306:-1 307:-1 308:-0.688 309:-1 310:-0.853334 311:-0.6 312:-1 313:-1 314:-0.873 315:-0.856001 316:-0.484004 317:-1 318:-1 319:-1 320:0.0879913 321:-0.938 322:-0.639996 323:-0.745999 324:-1 325:-0.778 326:-0.350509 327:-1 328:-0.96 329:-1 330:-0.872 331:-1 332:-1 333:-1 334:-1 335:-0.818182 336:-0.771553 337:-0.759998 
0 0.2789143040713385 0 0 0:-0.780002 1:-1 2:-1 3:-0.768002 4:-0.92 5:-0.6 6:-0.652002 7:-0.92 8:-0.808 9:-1 10:-1 11:-1 12:-1 13:-0.746667 14:-0.904 15:-1 16:-1 17:-1 18:-0.7968 19:-0.925333 20:-1 21:-0.936 22:-0.962 23:-1 24:-0.8256 25:-1 26:-1 27:0.25 28:-1 29:-0.863 30:-1 31:-1 32:-1 33:-0.853334 34:-0.631998 35:-1 36:0.0873364 37:-0.712002 38:-0.909999 39:-0.433602 40:-1 41:-1 42:-0.519995 43:-0.872 44:-1 45:-0.879999 46:-1 47:-0.876 48:-0.844 49:-0.924 50:-0.92 51:-0.776 52:-0.823001 53:-1 54:-0.551996 55:-1 56:-1 57:-0.818 58:-0.848001 59:-0.710002 60:-0.9 61:-0.736003 62:-1 63:-0.575206 64:-0.303201 65:-0.675 66:-0.84 67:-0.888 68:-0.568003 69:-0.856001 70:-0.884001 71:-1 72:-1 73:-1 74:-1 75:-1 76:-0.488 77:-0.604 78:-1 79:-1 80:-1 81:-0.8 82:-0.890999 83:-1 84:-1 85:-0.830666 86:-0.780002 87:-0.92 88:-0.9 89:-1 90:-1 91:-0.833333 92:-0.92 93:-0.80667 94:-1 95:-1 96:-1 97:-1 98:-1 99:-1 100:-1 101:-1 102:-1 103:-1 104:-1 105:-1 106:-0.564001 107:-0.459995 108:-0.844 109:-1 110:-0.879001 111:-0.865333 112:-1 113:-0.811 114:-1 115:-1 116:-1 117:-1 118:0.631036 119:-1 120:-1 121:-1 122:-1 123:-0.92 124:-0.879999 125:-1 126:-1 127:-1 128:-0.448009 129:-1 130:-0.780002 131:-1 132:-0.852 133:-0.933333 134:-0.872 135:-0.879999 136:-1 137:-1 138:-0.752 139:-1 140:-0.459995 141:-1 142:-0.872 143:-1 144:-1 145:-1 146:-1 147:-1 148:-1 149:-0.804 150:-0.604 151:-0.8 152:-1 153:-0.848001 154:-0.84 155:-0.120009 156:-0.872 157:-0.961333 158:-1 159:-0.906 160:-0.815999 161:-1 162:-1 163:-1 164:-0.819998 165:-1 166:-1 167:-0.919111 168:-0.923636 169:-1 170:-0.802 171:-1 172:-1 173:-1 174:-0.710667 175:-0.395003 176:-1 177:-1 178:-0.890001 179:-1 180:-0.407999 181:-1 182:-1 183:-1 184:-0.972 185:-1 186:-0.874667 187:-0.973565 188:-1 189:-1 190:-1 191:-0.92 192:-1 193:-0.446673 194:-0.36 195:-1 196:-0.96 197:-1 198:-0.890001 199:-1 200:-1 201:-0.958667 202:-0.75 203:-1 204:-1 205:-0.819998 206:-0.648004 207:-1 208:-1 209:-1 210:-1 211:-1 212:-0.887999 213:-0.564004 214:-0.88 215:-1 216:-0.926 217:-1 218:-0.879999 219:-0.829333 220:-1 221:-0.767995 222:-0.891199 223:-1 224:-1 225:-1 226:-0.912001 227:-1 228:-0.627999 229:-1 230:-0.6 231:-1 232:-1 233:-1 234:-1 235:-0.580002 236:-1 237:-0.962 238:-0.696002 239:-0.819998 240:-0.560004 241:-0.879999 242:-0.304005 243:-1 244:-0.556 245:-1 246:-0.890001 247:-1 248:-1 249:-0.0400192 250:-1 251:-0.777778 252:-0.84 253:-1 254:-1 255:-0.84 256:-1 257:-1 258:-0.884001 259:-1 260:-0.765327 261:-1 262:-1 263:-1 264:-0.884001 265:-0.972 266:-1 267:-0.55 268:-0.341997 269:-0.772002 270:-0.802 271:-0.866001 272:-1 273:-0.8 274:-0.28 275:-0.813333 276:-0.833333 277:-1 278:-0.8 279:-0.248003 280:-0.56 281:-0.310012 282:-0.84 283:-1 284:-1 285:-1 286:-0.879999 287:-0.841454 288:-1 289:-1 290:-0.63 291:-0.96 292:-1 293:-1 294:-1 295:-0.811999 296:-0.670854 297:-0.842668 298:-1 299:-0.819998 300:-1 301:-1 302:-0.767995 303:-1 304:-0.714286 305:-0.962667 306:-1 307:-1 308:-0.844 309:-1 310:-0.824 311:-1 312:-1 313:-1 314:-1 315:-1 316:-0.742002 317:-1 318:-1 319:-1 320:0.0879913 321:-0.938 322:-0.879999 323:-0.618999 324:-0.961538 325:-1 326:-0.350509 327:-1 328:-0.92 329:-1 330:-0.936 331:-1 332:-0.844 333:-1 334:-1 335:-0.727273 336:-0.885776 337:-0.879999 
0 0.07118107760740877 0.3899274204395611 1.015382209030818 0:-0.780002 1:-1 2:-1 3:-0.884001 4:-0.92 5:-0.7 6:-0.420004 7:-0.92 8:-0.872 9:-1 10:-1 11:-1 12:-1 13:-0.924 14:-0.776 15:-1 16:-1 17:-1 18:-0.7968 19:-0.850665 20:-0.852 21:-1 22:-0.886 23:-1 24:-1 25:-1 26:-1 27:-1 28:-0.712002 29:-1 30:-0.752796 31:-1 32:-1 33:-0.706667 34:-1 35:-1 36:-0.844666 37:-0.712002 38:-1 39:-0.716801 40:-1 41:-0.5 42:-1 43:-0.968 44:-1 45:-1 46:-1 47:-0.752 48:-0.844 49:-0.962 50:-1 51:-0.904 52:-1 53:-1 54:-0.775998 55:-1 56:-1 57:-0.453999 58:-0.924001 59:-0.594003 60:-0.7 61:-0.912001 62:-1 63:-0.29201 64:-0.624801 65:-0.65 66:-0.744 67:-0.972 68:-0.856001 69:-1 70:-0.884001 71:-1 72:-1 73:-1 74:-1 75:-0.736003 76:-0.232 77:-0.868 78:-0.563997 79:-1 80:-1 81:-0.8 82:-1 83:-1 84:-1 85:-1 86:-1 87:-1 88:-1 89:-1 90:-1 91:-1 92:-1 93:-1 94:-1 95:-1 96:-1 97:-1 98:-0.890001 99:-1 100:-0.872 101:-1 102:-0.864533 103:-1 104:-0.744 105:-1 106:-0.854667 107:-0.279993 108:-1 109:-1 110:-0.758001 111:-0.730667 112:-1 113:-1 114:-1 115:-0.92 116:-1 117:-1 118:-0.766995 119:-1 120:-1 121:-1 122:-1 123:-0.84 124:-0.399994 125:-1 126:-1 127:-1 128:-0.586007 129:-1 130:-0.780002 131:-1 132:-0.852 133:-1 134:-1 135:-1 136:-1 137:-1 138:-0.503999 139:-1 140:-1 141:-1 142:-0.744 143:-1 144:-0.92 145:-1 146:-1 147:-1 148:-1 149:-0.692 150:-0.868 151:-0.9 152:-1 153:-0.848001 154:-1 155:-0.208008 156:-1 157:-1 158:-1 159:-0.906 160:-1 161:-1 162:-0.92 163:-1 164:-0.639996 165:-0.709998 166:-1 167:-0.959556 168:-0.809091 169:-1 170:-0.802 171:-1 172:-0.856001 173:-1 174:-0.862222 175:-0.879001 176:-1 177:-1 178:-0.670003 179:-1 180:-0.407999 181:-0.760005 182:-1 183:-1 184:-1 185:-1 186:-0.686668 187:-0.973565 188:-1 189:-1 190:-1 191:-0.84 192:-1 193:-0.668004 194:-0.744 195:-1 196:-1 197:-1 198:-1 199:-0.652002 200:-0.819998 201:-0.669333 202:-0.65 203:-0.909334 204:-1 205:-0.819998 206:-0.824002 207:-0.782004 208:-0.5 209:-0.92 210:-0.636 211:-0.890285 212:-0.775998 213:-0.912801 214:-0.84 215:-0.816728 216:-1 217:-1 218:-0.759998 219:-0.914667 220:-1 221:-1 222:-0.9456 223:-1 224:-1 225:-1 226:-1 227:-1 228:-0.379999 229:-1 230:0.6 231:-1 232:-1 233:-1 234:-1 235:-0.520002 236:-1 237:-1 238:-1 239:-0.459995 240:-0.736003 241:-1 242:-0.884001 243:-1 244:0.141715 245:-1 246:-1 247:-0.928001 248:-1 249:-0.0400192 250:-0.248014 251:-0.777778 252:-0.84 253:-1 254:-1 255:-0.84 256:-0.759998 257:-0.941895 258:-0.536003 259:-1 260:-1 261:-1 262:-1 263:-0.884001 264:-0.652002 265:-1 266:-1 267:-0.725 268:-0.529998 269:-0.696002 270:-0.802 271:-1 272:-0.798859 273:-0.85 274:0.08 275:-0.906666 276:-0.944444 277:-1 278:-0.8 279:-0.624001 280:-0.692 281:0.103981 282:-1 283:-1 284:-1 285:-0.84 286:-1 287:-0.88109 288:-0.852 289:-1 290:-0.556 291:-1 292:-1 293:-1 294:-1 295:-0.811999 296:-0.780569 297:-0.842668 298:-1 299:-0.819998 300:-1 301:-1 302:-0.767995 303:-1 304:-1 305:-0.925333 306:-1 307:-1 308:-0.844 309:-1 310:-0.706667 311:-1 312:-1 313:-0.879999 314:-1 315:-1 316:-1 317:-1 318:-1 319:-1 320:-0.456004 321:-0.814 322:-0.639996 323:-0.873 324:-0.807692 325:-1 326:-0.350509 327:-0.685337 328:-1 329:-1 330:-0.776 331:-0.879999 332:-1 333:-1 334:-0.968 335:-0.863636 336:-0.771553 337:-1 
0.8923174245375618 1.039360339315961 1.115635575700112 1.171700432863068 0:-1 1:-1 2:-1 3:-1 4:-1 5:-0.8 6:-0.884001 7:-1 8:-0.872 9:-1 10:-0.857143 11:-1 12:-1 13:-0.848 14:-0.744 15:-0.928001 16:-1 17:-1 18:-0.7968 19:-1 20:-0.704 21:-0.936 22:-0.924 23:-0.916667 24:-0.6948 25:-1 26:-1 27:-1 28:-1 29:-0.725999 30:-1 31:-1 32:0.0620409 33:-0.648001 34:-0.263996 35:-1 36:-0.533999 37:-0.712002 38:-1 39:-0.622401 40:-1 41:-1 42:-0.879999 43:-0.712 44:-1 45:-0.879999 46:-1 47:-0.503999 48:-0.532 49:-0.886 50:-0.92 51:-0.712 52:-1 53:-1 54:-0.775998 55:-0.984 56:-1 57:-0.636 58:-0.620003 59:-0.652002 60:-0.8 61:-0.736003 62:-1 63:-0.716804 64:-0.8392 65:-0.925 66:-0.968 67:-0.972 68:-1 69:-0.712002 70:-0.884001 71:-1 72:-1 73:-1 74:-1 75:-0.736003 76:-0.488 77:-0.471999 78:-0.890999 79:-1 80:-1 81:-0.8 82:-0.890999 83:-1 84:-0.936 85:-1 86:-1 87:-1 88:-0.8 89:-1 90:-1 91:-1 92:-1 93:-0.80667 94:-1 95:-1 96:-1 97:-1 98:-1 99:-1 100:-1 101:-0.829333 102:-0.932267 103:-1 104:-1 105:-1 106:-0.709334 107:-0.459995 108:-0.844 109:-1 110:-0.0320044 111:-0.865333 112:-0.9 113:-0.811 114:-1 115:-0.92 116:-1 117:-1 118:-0.766995 119:-1 120:-1 121:-1 122:-1 123:-0.84 124:-0.399994 125:-0.720006 126:-1 127:-1 128:-0.862002 129:-1 130:-1 131:-1 132:-0.111999 133:-1 134:-1 135:-1 136:-0.8 137:-1 138:-0.876 139:-1 140:-0.819998 141:-1 142:-0.872 143:-1 144:-1 145:-1 146:-1 147:-1 148:-1 149:-0.86 150:-0.736 151:-1 152:-1 153:-0.696002 154:-0.92 155:-0.824002 156:-1 157:-1 158:-1 159:-0.906 160:-0.815999 161:-1 162:-1 163:-1 164:-0.459995 165:-1 166:-0.763998 167:-0.878667 168:-1 169:-1 170:-0.207999 171:-0.890001 172:-1 173:-0.9 174:-0.765778 175:-0.879001 176:-1 177:-1 178:-0.780002 179:-1 180:-0.852 181:-0.0400192 182:-1 183:-1 184:-1 185:-1 186:-0.624001 187:-0.947131 188:-1 189:-1 190:-1 191:-0.84 192:-1 193:-0.00401162 194:-0.744 195:-1 196:-1 197:-1 198:-0.890001 199:-0.884001 200:-1 201:-0.793333 202:-0.8 203:-1 204:-1 205:-1 206:-0.560004 207:-0.782004 208:-0.5 209:-1 210:-1 211:-0.561139 212:-0.551996 213:-0.564004 214:-0.8 215:-1 216:-1 217:-1 218:-1 219:-0.829333 220:-1 221:-1 222:-1 223:-1 224:-1 225:-1 226:-1 227:-1 228:-0.752 229:-1 230:-1 231:-1 232:-1 233:-0.652002 234:-1 235:-0.640002 236:-1 237:-1 238:-1 239:-1 240:-0.560004 241:-0.759998 242:-0.884001 243:-1 244:-0.365714 245:-1 246:-1 247:-1 248:-1 249:-0.280014 250:-0.624007 251:-1 252:-1 253:-1 254:-1 255:-1 256:-1 257:-0.941895 258:-0.768002 259:-1 260:-0.765327 261:-1 262:-0.720006 263:-0.884001 264:-0.420004 265:-1 266:-1 267:-0.775 268:-0.341997 269:-0.848001 270:-1 271:-0.866001 272:-0.798859 273:-0.85 274:-0.68 275:-0.906666 276:-0.833333 277:-1 278:-1 279:-0.561335 280:-0.824 281:-0.448009 282:-1 283:-1 284:-1 285:-0.84 286:-1 287:-0.88109 288:-1 289:-1 290:-0.704 291:-1 292:-1 293:-1 294:-1 295:-0.247997 296:-1 297:-0.842668 298:-1 299:-1 300:-1 301:-0.942 302:-1 303:-1 304:-1 305:-0.813334 306:-1 307:-1 308:-0.922 309:-1 310:-0.648001 311:-1 312:-0.390221 313:-0.879999 314:-0.745999 315:-1 316:-0.484004 317:-0.704 318:-1 319:-1 320:-0.728002 321:-0.938 322:-0.279993 323:-0.618999 324:-0.730769 325:-1 326:-0.783503 327:-1 328:-1 329:-0.942 330:-0.68 331:-0.279993 332:-1 333:-1 334:-1 335:-0.636364 336:-0.771553 337:-0.879999 
0.9889127337567188 0.8736795486603036 1.733355050101385 1.473201729507466 0:-1 1:-1 2:-1 3:-0.536003 4:-1 5:-0.3 6:-0.420004 7:-1 8:-0.808 9:-1 10:-1 11:-1 12:-1 13:-0.873334 14:-0.872 15:-1 16:-0.649998 17:-1 18:-1 19:-0.775998 20:-0.852 21:-1 22:-0.886 23:-1 24:-0.607599 25:-0.879999 26:-1 27:-0.75 28:-1 29:-1 30:-1 31:-1 32:-1 33:-0.824 34:-0.631998 35:-1 36:-0.378665 37:-0.712002 38:-1 39:-0.622401 40:-1 41:-1 42:-0.759998 43:-0.84 44:-0.76 45:-1 46:-1 47:-0.876 48:-0.844 49:-0.772 50:-0.92 51:-0.84 52:-1 53:-1 54:-0.327995 55:-0.824 56:-1 57:-0.453999 58:-0.924001 59:-0.652002 60:-0.9 61:-1 62:-1 63:-0.858402 64:-0.678401 65:-0.925 66:-0.968 67:-0.972 68:-1 69:-1 70:-1 71:-0.846154 72:-1 73:-1 74:-1 75:-0.824002 76:-0.744 77:-1 78:-0.890999 79:-1 80:-1 81:-0.8 82:-0.781999 83:-0.92 84:-1 85:-0.830666 86:-0.780002 87:-0.96 88:-0.9 89:-1 90:-1 91:-1 92:-1 93:-1 94:-1 95:-1 96:-1 97:-1 98:-1 99:-1 100:-0.872 101:-1 102:-1 103:-0.546022 104:-1 105:-0.968 106:-0.709334 107:-0.819998 108:-0.844 109:-1 110:-0.879001 111:-0.730667 112:-1 113:-1 114:-1 115:-1 116:-1 117:-1 118:-0.766995 119:-0.732002 120:-1 121:-1 122:-1 123:-0.92 124:-0.879999 125:-0.720006 126:-1 127:-0.926 128:-0.724005 129:-0.639996 130:-0.780002 131:-1 132:-0.852 133:-1 134:-1 135:-1 136:-1 137:-0.450005 138:-0.627999 139:-1 140:-1 141:-0.611198 142:-0.488 143:-0.936 144:-1 145:-1 146:-1 147:-1 148:-1 149:-0.692 150:-0.868 151:-1 152:-1 153:-0.848001 154:-1 155:-0.296007 156:-1 157:-0.961333 158:-0.9 159:-0.906 160:-0.815999 161:-1 162:-1 163:-1 164:-1 165:-1 166:-0.763998 167:-0.838222 168:-0.885455 169:-0.8 170:-0.207999 171:-0.780002 172:-0.856001 173:-0.8 174:-0.738223 175:-0.758001 176:-1 177:-1 178:-1 179:-0.333333 180:-0.852 181:-1 182:-0.444444 183:-1 184:-1 185:-1 186:-0.812001 187:-0.933913 188:-1 189:-1 190:-1 191:-0.92 192:-0.872 193:-0.557338 194:-0.488 195:-1 196:-1 197:-0.899 198:-1 199:-0.942 200:-1 201:-0.876 202:-0.95 203:-1 204:-0.9 205:-1 206:-0.736003 207:-0.782004 208:-1 209:-1 210:-0.818 211:-0.231993 212:-0.775998 213:0.04639 214:-0.88 215:-1 216:-1 217:-0.731993 218:-0.519995 219:-0.744 220:-1 221:-1 222:-1 223:-1 224:-0.780002 225:-1 226:-1 227:-1 228:-0.627999 229:-1 230:-1 231:-1 232:-1 233:-1 234:-1 235:-0.880001 236:-1 237:-1 238:-0.696002 239:-1 240:-0.560004 241:-1 242:-1 243:-0.846154 244:-0.492571 245:-0.972 246:-1 247:-0.928001 248:-1 249:-0.280014 250:-0.248014 251:-0.777778 252:-1 253:-1 254:-1 255:-1 256:-1 257:-0.76758 258:-0.942 259:-0.720006 260:-1 261:-1 262:-1 263:-1 264:-0.652002 265:-1 266:-1 267:-0.95 268:0.316006 269:-0.772002 270:-0.802 271:-0.866001 272:-0.698288 273:-0.9 274:-0.12 275:-1 276:-0.833333 277:-0.833997 278:-0.8 279:-0.561335 280:-0.868 281:-0.862002 282:-0.84 283:-1 284:-1 285:-1 286:-1 287:-0.762181 288:-1 289:-1 290:-0.704 291:-1 292:-0.802 293:-1 294:-1 295:-0.717999 296:-0.780569 297:-1 298:-0.856001 299:-0.819998 300:-0.760794 301:-0.826001 302:-1 303:-1 304:-1 305:-0.888 306:-1 307:-1 308:-1 309:-0.865143 310:-0.853334 311:-0.9 312:-1 313:-1 314:-1 315:-0.856001 316:-1 317:-0.556 318:-0.921333 319:-1 320:0.631987 321:-0.938 322:-1 323:-0.873 324:-0.923077 325:-1 326:-0.567006 327:-1 328:-1 329:-1 330:-0.776 331:-0.759998 332:-0.844 333:-1 334:-1 335:-0.772727 336:-0.885776 337:-0.759998 
1.342551226857161 0.4205638481596821 1.780638192022282 1.848201863916674 0:-0.560004 1:-1 2:-1 3:-0.884001 4:-1 5:-0.65 6:-0.0720065 7:-1 8:-0.872 9:-0.84 10:-0.857143 11:-1 12:-1 13:-0.797334 14:-0.872 15:-1 16:-1 17:-1 18:-1 19:-0.925333 20:-0.704 21:-1 22:-0.924 23:-0.916667 24:-1 25:-1 26:-1 27:-0.75 28:-1 29:-0.863 30:-1 31:-0.767995 32:-1 33:-0.266669 34:-0.631998 35:-1 36:-0.533999 37:-1 38:-1 39:-0.716801 40:-1 41:-1 42:-1 43:-0.808 44:-1 45:-1 46:-1 47:-0.627999 48:-0.688 49:-0.81 50:-1 51:-0.776 52:-0.823001 53:-1 54:-0.775998 55:-0.952 56:-1 57:-0.727 58:-0.848001 59:-0.710002 60:-0.8 61:-0.824002 62:-0.798 63:-0.29201 64:-0.678401 65:-0.825 66:-1 67:-0.972 68:-1 69:-0.856001 70:-1 71:-1 72:-1 73:-1 74:-1 75:-0.824002 76:-0.232 77:-0.868 78:-0.781999 79:-1 80:-1 81:-0.8 82:-0.890999 83:-0.88 84:-0.872 85:-0.661333 86:-1 87:-1 88:-1 89:-1 90:-1 91:-0.833333 92:-1 93:-1 94:-1 95:-1 96:-1 97:-1 98:-1 99:-1 100:-0.936 101:-1 102:-0.864533 103:-0.546022 104:-1 105:-1 106:-1 107:-0.819998 108:-1 109:-1 110:-0.879001 111:-0.865333 112:-1 113:-0.811 114:-0.94 115:-1 116:-0.898667 117:-1 118:-0.766995 119:-0.732002 120:-1 121:-1 122:-1 123:-0.92 124:-0.879999 125:-1 126:-0.848001 127:-0.852 128:-0.586007 129:-0.279993 130:-1 131:-1 132:-0.852 133:-1 134:-1 135:-0.519995 136:-1 137:-1 138:-0.503999 139:-0.916 140:-0.819998 141:-1 142:-1 143:-1 144:-0.88 145:-1 146:-1 147:-1 148:-1 149:-0.86 150:-0.868 151:-0.5 152:-1 153:-1 154:-0.76 155:-0.384006 156:-0.872 157:-1 158:-1 159:-0.623998 160:-1 161:-1 162:-0.76 163:-1 164:-1 165:-1 166:-1 167:-0.878667 168:-0.809091 169:-1 170:-1 171:-1 172:-0.856001 173:-1 174:-0.738223 175:-0.758001 176:-0.92 177:-0.334664 178:-1 179:-1 180:-0.852 181:-0.760005 182:-0.888889 183:-0.75734 184:-1 185:-1 186:-0.812001 187:-0.894261 188:-1 189:-1 190:-1 191:-0.92 192:-1 193:-0.778669 194:-0.488 195:-1 196:-0.96 197:-0.798 198:-1 199:-0.826001 200:-1 201:-0.876 202:-0.4 203:-0.909334 204:-0.8 205:-1 206:-0.912001 207:-1 208:-1 209:-1 210:-0.453999 211:-1 212:-1 213:-0.825602 214:-0.96 215:-0.908364 216:-1 217:-1 218:-1 219:-0.914667 220:-0.704 221:-1 222:-0.891199 223:-0.879999 224:-1 225:-1 226:-1 227:-0.844 228:-0.379999 229:-0.84 230:-1 231:-1 232:-1 233:-0.884001 234:-1 235:-0.400003 236:-0.884001 237:-0.924 238:-1 239:-0.639996 240:-0.384006 241:-1 242:-0.768002 243:-0.846154 244:-0.556 245:-0.972 246:-0.890001 247:-1 248:-1 249:-0.0400192 250:-1 251:-1 252:-1 253:-0.491999 254:-0.756802 255:-1 256:-1 257:-0.88379 258:-0.942 259:-1 260:-1 261:-0.92 262:-1 263:-0.884001 264:-0.188006 265:-1 266:-1 267:-0.775 268:-0.529998 269:-0.392005 270:-0.405999 271:-0.866001 272:-0.899429 273:-0.8 274:-0.72 275:-0.906666 276:-0.888889 277:-0.501992 278:-0.8 279:-0.686668 280:-0.868 281:-0.448009 282:-1 283:-1 284:-1 285:-1 286:-1 287:-0.88109 288:-1 289:-1 290:-0.778 291:-1 292:-0.802 293:-1 294:-1 295:-0.906 296:-0.341708 297:-0.842668 298:-1 299:-1 300:-1 301:-1 302:-0.303985 303:-1 304:-1 305:-0.925333 306:-1 307:-1 308:-1 309:-0.932571 310:-0.882667 311:-1 312:-0.390221 313:-1 314:-1 315:-1 316:-0.742002 317:-0.852 318:-0.842665 319:-1 320:-0.728002 321:-0.627999 322:-1 323:-0.873 324:-1 325:-1 326:-0.567006 327:-1 328:-1 329:-1 330:-0.872 331:-0.159992 332:-0.922 333:-1 334:-1 335:-0.863636 336:-0.885776 337:-1 
